{"learner":{"attributes":{"scikit_learn":"{\"_estimator_type\": \"classifier\"}"},"feature_names":["murder_rate","rape_rate","kidnapping_rate","robbery_rate","theft_rate","riots_rate","cheating_rate","crime_severity_index","crime_diversity_score","tourist_risk_score","crime_rate","safety_score"],"feature_types":["float","float","float","float","float","float","float","float","float","float","float","float"],"gradient_booster":{"model":{"cats":{"enc":[],"feature_segments":[],"sorted_idx":[]},"gbtree_model_param":{"num_parallel_tree":"1","num_trees":"300"},"iteration_indptr":[0,3,6,9,12,15,18,21,24,27,30,33,36,39,42,45,48,51,54,57,60,63,66,69,72,75,78,81,84,87,90,93,96,99,102,105,108,111,114,117,120,123,126,129,132,135,138,141,144,147,150,153,156,159,162,165,168,171,174,177,180,183,186,189,192,195,198,201,204,207,210,213,216,219,222,225,228,231,234,237,240,243,246,249,252,255,258,261,264,267,270,273,276,279,282,285,288,291,294,297,300],"tree_info":[0,1,2,0,1,2,0,1,2,0,1,2,0,1,2,0,1,2,0,1,2,0,1,2,0,1,2,0,1,2,0,1,2,0,1,2,0,1,2,0,1,2,0,1,2,0,1,2,0,1,2,0,1,2,0,1,2,0,1,2,0,1,2,0,1,2,0,1,2,0,1,2,0,1,2,0,1,2,0,1,2,0,1,2,0,1,2,0,1,2,0,1,2,0,1,2,0,1,2,0,1,2,0,1,2,0,1,2,0,1,2,0,1,2,0,1,2,0,1,2,0,1,2,0,1,2,0,1,2,0,1,2,0,1,2,0,1,2,0,1,2,0,1,2,0,1,2,0,1,2,0,1,2,0,1,2,0,1,2,0,1,2,0,1,2,0,1,2,0,1,2,0,1,2,0,1,2,0,1,2,0,1,2,0,1,2,0,1,2,0,1,2,0,1,2,0,1,2,0,1,2,0,1,2,0,1,2,0,1,2,0,1,2,0,1,2,0,1,2,0,1,2,0,1,2,0,1,2,0,1,2,0,1,2,0,1,2,0,1,2,0,1,2,0,1,2,0,1,2,0,1,2,0,1,2,0,1,2,0,1,2,0,1,2,0,1,2,0,1,2,0,1,2,0,1,2,0,1,2,0,1,2,0,1,2,0,1,2,0,1,2,0,1,2,0,1,2,0,1,2],"trees":[{"base_weights":[-5.968902E-1,1.20077185E-1,-6.385313E-2,-7.853499E-2,4.896678E-2,4.896678E-2,-5.1705487E-2],"categories":[],"categories_nodes":[],"categories_segments":[],"categories_sizes":[],"default_left":[0,0,0,0,0,0,0],"id":0,"left_children":[1,3,-1,5,-1,-1,-1],"loss_changes":[5.7860947E0,8.707951E-1,0E0,2.3056524E0,0E0,0E0,0E0],"parents":[2147483647,0,0,1,1,3,3],"right_children":[2,4,-1,6,-1,-1,-1],"split_conditions":[-7.7637756E-1,-1.1921058E0,-6.385313E-2,1.6233283E-1,4.896678E-2,4.896678E-2,-5.1705487E-2],"split_indices":[1,2,0,9,0,0,0],"split_type":[0,0,0,0,0,0,0],"sum_hessian":[1.9023694E2,1.0338964E1,1.7989798E2,7.237275E0,3.1016893E0,3.1016893E0,4.135586E0],"tree_param":{"num_deleted":"0","num_feature":"12","num_nodes":"7","size_leaf_vector":"1"}},{"base_weights":[-4.665343E-1,-6.4459935E-2,7.636422E-1,1.220384E0,-5.6246012E-2,4.0764753E-2,1.4318303E0,7.911093E-2,1.568696E-1],"categories":[],"categories_nodes":[],"categories_segments":[],"categories_sizes":[],"default_left":[0,0,0,0,0,0,0,0,0],"id":1,"left_children":[1,-1,3,5,-1,-1,7,-1,-1],"loss_changes":[4.326124E1,0E0,1.5916798E1,2.6847572E0,0E0,0E0,4.7597885E-2,0E0,0E0],"parents":[2147483647,0,0,2,2,3,3,6,6],"right_children":[2,-1,4,6,-1,-1,8,-1,-1],"split_conditions":[1.5952803E-1,-6.4459935E-2,2.8648433E-1,-1.2218164E0,-5.6246012E-2,4.0764753E-2,-9.204565E-1,7.911093E-2,1.568696E-1],"split_indices":[9,0,4,1,0,0,5,0,0],"split_type":[0,0,0,0,0,0,0,0,0],"sum_hessian":[1.9424635E2,1.7010071E2,2.414565E1,1.8019142E1,6.1265087E0,4.3245945E0,1.3694549E1,3.6038284E0,1.009072E1],"tree_param":{"num_deleted":"0","num_feature":"12","num_nodes":"9","size_leaf_vector":"1"}},{"base_weights":[7.3540115E-1,9.1698706E-2,-3.0026534E-1,-5.873748E-1,5.620735E-1,-3.054418E-1,-8.8623695E-2,4.4584437E-3,7.973467E-2,-1.1734082E-1,-7.109033E-2,-4.4820234E-2,5.3446185E-2],"categories":[],"categories_nodes":[],"categories_segments":[],"categories_sizes":[],"default_left":[0,0,0,0,0,0,0,0,0,0,0,0,0],"id":2,"left_children":[1,-1,3,5,7,9,-1,-1,-1,11,-1,-1,-1],"loss_changes":[5.189261E1,0E0,1.0653909E1,2.4063406E0,1.2947385E0,1.279842E0,0E0,0E0,0E0,3.1310349E0,0E0,0E0,0E0],"parents":[2147483647,0,0,2,2,3,3,4,4,5,5,9,9],"right_children":[2,-1,4,6,8,10,-1,-1,-1,12,-1,-1,-1],"split_conditions":[1.5803264E0,9.1698706E-2,8.5976523E-1,4.3838434E-2,1.8067563E0,5.925293E-1,-8.8623695E-2,4.4584437E-3,7.973467E-2,-4.178766E-1,-7.109033E-2,-4.4820234E-2,5.3446185E-2],"split_indices":[8,0,7,5,7,0,0,0,0,7,0,0,0],"split_type":[0,0,0,0,0,0,0,0,0,0,0,0,0],"sum_hessian":[2.734689E2,2.3277116E2,4.069773E1,3.0771454E1,9.926275E0,1.6874668E1,1.3896786E1,3.4741964E0,6.4520793E0,1.2407845E1,4.466824E0,8.437334E0,3.9705102E0],"tree_param":{"num_deleted":"0","num_feature":"12","num_nodes":"13","size_leaf_vector":"1"}},{"base_weights":[-5.8208704E-1,-1.0017996E-1,-6.1821938E-2,-3.1059033E-1,4.8597414E-2,-8.669478E-3,-5.227082E-2],"categories":[],"categories_nodes":[],"categories_segments":[],"categories_sizes":[],"default_left":[0,0,0,0,0,0,0],"id":3,"left_children":[1,3,-1,5,-1,-1,-1],"loss_changes":[3.1566658E0,1.8882065E0,0E0,4.7592604E-1,0E0,0E0,0E0],"parents":[2147483647,0,0,1,1,3,3],"right_children":[2,4,-1,6,-1,-1,-1],"split_conditions":[-2.9421955E-1,-4.5999414E-1,-6.1821938E-2,-6.0914445E-1,4.8597414E-2,-8.669478E-3,-5.227082E-2],"split_indices":[10,10,0,10,0,0,0],"split_type":[0,0,0,0,0,0,0],"sum_hessian":[1.8384537E2,1.3086002E1,1.7075937E2,9.97531E0,3.110692E0,5.5382566E0,4.4370537E0],"tree_param":{"num_deleted":"0","num_feature":"12","num_nodes":"7","size_leaf_vector":"1"}},{"base_weights":[-4.11059E-1,-6.33735E-2,6.944482E-1,9.9313664E-1,-1.5967244E-1,4.6883708E-1,1.4578896E0,3.74193E-2,-5.364379E-2,7.061998E-1,-9.690194E-3,1.6249515E-1,8.021155E-2,9.6670754E-2,1.8611444E-2],"categories":[],"categories_nodes":[],"categories_segments":[],"categories_sizes":[],"default_left":[0,0,0,0,0,0,0,0,0,0,0,0,0,0,0],"id":4,"left_children":[1,-1,3,5,7,9,11,-1,-1,13,-1,-1,-1,-1,-1],"loss_changes":[4.7751488E1,0E0,8.50053E0,5.253521E0,2.07811E0,1.8038163E0,5.967903E-2,0E0,0E0,1.0698404E0,0E0,0E0,0E0,0E0,0E0],"parents":[2147483647,0,0,2,2,3,3,4,4,5,5,6,6,9,9],"right_children":[2,-1,4,6,8,10,12,-1,-1,14,-1,-1,-1,-1,-1],"split_conditions":[-1.2518911E-1,-6.33735E-2,2.0543404E0,2.7070284E-1,1.4246204E-1,3.143773E-2,1.6757513E0,3.74193E-2,-5.364379E-2,2.2914566E-2,-9.690194E-3,1.6249515E-1,8.021155E-2,9.6670754E-2,1.8611444E-2],"split_indices":[9,0,2,5,6,3,9,0,0,6,0,0,0,0,0],"split_type":[0,0,0,0,0,0,0,0,0,0,0,0,0,0,0],"sum_hessian":[1.9119E2,1.5949133E2,3.1698679E1,2.3365082E1,8.333596E0,1.1923108E1,1.1441974E1,3.450776E0,4.8828197E0,8.224247E0,3.6988616E0,7.941037E0,3.500937E0,4.9074073E0,3.3168395E0],"tree_param":{"num_deleted":"0","num_feature":"12","num_nodes":"15","size_leaf_vector":"1"}},{"base_weights":[7.080217E-1,8.5654825E-2,-2.0799476E-1,-4.8749098E-1,6.804875E-2,-1.4653847E-1,-6.716103E-1,-4.5336094E-2,6.384916E-2,-7.706398E-1,-2.2993555E-2,2.8596533E-2,-1.7304005E-2,-3.7613526E-2,-9.221707E-2],"categories":[],"categories_nodes":[],"categories_segments":[],"categories_sizes":[],"default_left":[0,0,0,0,0,0,0,0,0,0,0,0,0,0,0],"id":5,"left_children":[1,-1,3,5,-1,7,9,-1,11,13,-1,-1,-1,-1,-1],"loss_changes":[3.763463E1,0E0,1.0070146E1,1.8108687E0,0E0,7.999527E-1,6.744089E-1,0E0,4.6842217E-1,5.784712E-1,0E0,0E0,0E0,0E0,0E0],"parents":[2147483647,0,0,2,2,3,3,5,5,6,6,8,8,9,9],"right_children":[2,-1,4,6,-1,8,10,-1,12,14,-1,-1,-1,-1,-1],"split_conditions":[1.5803264E0,8.5654825E-2,2.8648433E-1,-8.889491E-1,6.804875E-2,-5.7996774E-1,4.5991445E-1,-4.5336094E-2,-6.161391E-1,4.3838434E-2,-2.2993555E-2,2.8596533E-2,-1.7304005E-2,-3.7613526E-2,-9.221707E-2],"split_indices":[8,0,4,5,0,6,6,0,1,5,0,0,0,0,0],"split_type":[0,0,0,0,0,0,0,0,0,0,0,0,0,0,0],"sum_hessian":[2.7430838E2,2.3609235E2,3.8216022E1,2.9414284E1,8.801741E0,1.0944018E1,1.8470264E1,3.9819658E0,6.962053E0,1.44790535E1,3.991212E0,3.4861445E0,3.4759083E0,4.9844575E0,9.494596E0],"tree_param":{"num_deleted":"0","num_feature":"12","num_nodes":"15","size_leaf_vector":"1"}},{"base_weights":[-5.897418E-1,1.1429421E-3,-6.007064E-1,5.832659E-4,-6.120346E-2],"categories":[],"categories_nodes":[],"categories_segments":[],"categories_sizes":[],"default_left":[0,0,0,0,0],"id":6,"left_children":[1,-1,3,-1,-1],"loss_changes":[1.1368675E0,0E0,1.1605034E0,0E0,0E0],"parents":[2147483647,0,0,2,2],"right_children":[2,-1,4,-1,-1],"split_conditions":[-1.2731711E0,1.1429421E-3,-1.0167409E0,5.832659E-4,-6.120346E-2],"split_indices":[3,0,6,0,0],"split_type":[0,0,0,0,0],"sum_hessian":[1.7043124E2,3.0520046E0,1.6737924E2,3.0776973E0,1.6430154E2],"tree_param":{"num_deleted":"0","num_feature":"12","num_nodes":"5","size_leaf_vector":"1"}},{"base_weights":[-3.9455897E-1,-6.1884042E-2,6.365716E-1,9.633098E-1,-4.3974996E-1,1.1480786E0,4.0355405E-1,-2.3734799E-2,-5.1234193E-2,5.7805043E-2,1.3644117E-1,-6.2268106E-3,7.40652E-2],"categories":[],"categories_nodes":[],"categories_segments":[],"categories_sizes":[],"default_left":[0,0,0,0,0,0,0,0,0,0,0,0,0],"id":7,"left_children":[1,-1,3,5,7,9,11,-1,-1,-1,-1,-1,-1],"loss_changes":[4.238221E1,0E0,1.2003931E1,2.1816978E0,1.1537075E-3,1.5154972E0,1.2848709E0,0E0,0E0,0E0,0E0,0E0,0E0],"parents":[2147483647,0,0,2,2,3,3,4,4,5,5,6,6],"right_children":[2,-1,4,6,8,10,12,-1,-1,-1,-1,-1,-1],"split_conditions":[1.5803264E0,-6.1884042E-2,2.290068E-1,-3.561314E-3,3.1191215E-1,-1.2218164E0,4.734825E-1,-2.3734799E-2,-5.1234193E-2,5.7805043E-2,1.3644117E-1,-6.2268106E-3,7.40652E-2],"split_indices":[8,0,4,4,0,1,1,0,0,0,0,0,0],"split_type":[0,0,0,0,0,0,0,0,0,0,0,0,0],"sum_hessian":[1.8056035E2,1.4863135E2,3.1928995E1,2.4574062E1,7.3549337E0,1.7685314E1,6.8887477E0,3.0686102E0,4.2863235E0,5.875548E0,1.1809767E1,3.2344592E0,3.6542883E0],"tree_param":{"num_deleted":"0","num_feature":"12","num_nodes":"13","size_leaf_vector":"1"}},{"base_weights":[6.5512973E-1,-7.188644E-1,7.524945E-1,-4.5137796E-1,-8.668106E-2,8.074087E-2,1.4205854E-1,-1.4859887E-2,-6.333841E-2,-3.6234722E-1,7.497583E-2,7.40223E-3,-7.1499325E-2],"categories":[],"categories_nodes":[],"categories_segments":[],"categories_sizes":[],"default_left":[0,0,0,0,0,0,0,0,0,0,0,0,0],"id":8,"left_children":[1,3,5,7,-1,-1,9,-1,-1,11,-1,-1,-1],"loss_changes":[3.5799866E1,3.191738E-1,8.152039E0,3.7317932E-1,0E0,0E0,6.8826275E0,0E0,0E0,1.9702293E0,0E0,0E0,0E0],"parents":[2147483647,0,0,1,1,2,2,3,3,6,6,9,9],"right_children":[2,4,6,8,-1,-1,10,-1,-1,12,-1,-1,-1],"split_conditions":[-1.10563174E-1,-8.889491E-1,-9.367171E-2,-1.2218164E0,-8.668106E-2,8.074087E-2,2.290068E-1,-1.4859887E-2,-6.333841E-2,6.280957E-2,7.497583E-2,7.40223E-3,-7.1499325E-2],"split_indices":[4,5,4,1,0,0,4,0,0,7,0,0,0],"split_type":[0,0,0,0,0,0,0,0,0,0,0,0,0],"sum_hessian":[2.625618E2,1.6952196E1,2.4560962E2,7.4797626E0,9.472433E0,2.2504236E2,2.0567265E1,3.4901378E0,3.9896247E0,1.1459411E1,9.107853E0,5.474848E0,5.9845634E0],"tree_param":{"num_deleted":"0","num_feature":"12","num_nodes":"13","size_leaf_vector":"1"}},{"base_weights":[-5.579427E-1,1.5571459E-1,-5.9956398E-2,-2.0772437E-2,6.1734945E-2],"categories":[],"categories_nodes":[],"categories_segments":[],"categories_sizes":[],"default_left":[0,0,0,0,0],"id":9,"left_children":[1,3,-1,-1,-1],"loss_changes":[4.8219986E0,1.7332946E0,0E0,0E0,0E0],"parents":[2147483647,0,0,1,1],"right_children":[2,4,-1,-1,-1],"split_conditions":[-7.7637756E-1,-1.542026E0,-5.9956398E-2,-2.0772437E-2,6.1734945E-2],"split_indices":[1,0,0,0,0],"split_type":[0,0,0,0,0],"sum_hessian":[1.581956E2,8.566655E0,1.4962895E2,5.1008496E0,3.465806E0],"tree_param":{"num_deleted":"0","num_feature":"12","num_nodes":"5","size_leaf_vector":"1"}},{"base_weights":[-3.774675E-1,-6.0583252E-2,5.709267E-1,7.977151E-1,-5.2861284E-2,5.0556636E-1,1.1026114E-1,4.6265884E-3,6.426868E-1,1.6308626E-2,7.858973E-2],"categories":[],"categories_nodes":[],"categories_segments":[],"categories_sizes":[],"default_left":[0,0,0,0,0,0,0,0,0,0,0],"id":10,"left_children":[1,-1,3,5,-1,7,-1,-1,9,-1,-1],"loss_changes":[3.9336544E1,0E0,9.262019E0,2.0959587E0,0E0,1.044631E0,0E0,0E0,7.688031E-1,0E0,0E0],"parents":[2147483647,0,0,2,2,3,3,5,5,8,8],"right_children":[2,-1,4,6,-1,8,-1,-1,10,-1,-1],"split_conditions":[1.5803264E0,-6.0583252E-2,2.8648433E-1,8.695609E-2,-5.2861284E-2,-2.074238E0,1.1026114E-1,4.6265884E-3,-1.0047109E0,1.6308626E-2,7.858973E-2],"split_indices":[8,0,4,5,0,2,0,0,3,0,0],"split_type":[0,0,0,0,0,0,0,0,0,0,0],"sum_hessian":[1.7902884E2,1.4457713E2,3.4451702E1,2.8788382E1,5.663323E0,1.6058977E1,1.27294035E1,3.9995246E0,1.2059453E1,3.264773E0,8.794681E0],"tree_param":{"num_deleted":"0","num_feature":"12","num_nodes":"11","size_leaf_vector":"1"}},{"base_weights":[5.997526E-1,7.65663E-2,-2.96029E-1,-4.7539386E-1,3.991769E-1,-1.9499435E-1,-7.810048E-2,1.3665603E-4,6.577156E-2,-4.7366062E-1,2.6472017E-2,-1.7068246E-2,-6.807068E-2],"categories":[],"categories_nodes":[],"categories_segments":[],"categories_sizes":[],"default_left":[0,0,0,0,0,0,0,0,0,0,0,0,0],"id":11,"left_children":[1,-1,3,5,7,9,-1,-1,-1,11,-1,-1,-1],"loss_changes":[3.6905365E1,0E0,5.0887976E0,2.563055E0,8.8371885E-1,2.4130945E0,0E0,0E0,0E0,6.037564E-1,0E0,0E0,0E0],"parents":[2147483647,0,0,2,2,3,3,4,4,5,5,9,9],"right_children":[2,-1,4,6,8,10,-1,-1,-1,12,-1,-1,-1],"split_conditions":[1.5803264E0,7.65663E-2,8.5976523E-1,4.3838434E-2,1.0699954E0,-1.673085E-1,-7.810048E-2,1.3665603E-4,6.577156E-2,-5.441793E-1,2.6472017E-2,-1.7068246E-2,-6.807068E-2],"split_indices":[8,0,7,5,10,3,0,0,0,10,0,0,0],"split_type":[0,0,0,0,0,0,0,0,0,0,0,0,0],"sum_hessian":[2.4579614E2,2.075082E2,3.8287952E1,3.0686852E1,7.6011014E0,1.6857794E1,1.3829059E1,3.3900926E0,4.211009E0,1.0476744E1,6.381049E0,4.9936805E0,5.4830637E0],"tree_param":{"num_deleted":"0","num_feature":"12","num_nodes":"13","size_leaf_vector":"1"}},{"base_weights":[-5.527617E-1,1.2825499E-2,-5.708947E-1,-2.6791525E-4,-5.834579E-1,-5.8995035E-2,-3.244697E-2],"categories":[],"categories_nodes":[],"categories_segments":[],"categories_sizes":[],"default_left":[0,0,0,0,0,0,0],"id":12,"left_children":[1,-1,3,-1,5,-1,-1],"loss_changes":[1.938633E0,0E0,1.0501289E0,0E0,5.0930023E-2,0E0,0E0],"parents":[2147483647,0,0,2,2,4,4],"right_children":[2,-1,4,-1,6,-1,-1],"split_conditions":[-3.133023E-1,1.2825499E-2,-6.962584E-1,-2.6791525E-4,2.0595906E0,-5.8995035E-2,-3.244697E-2],"split_indices":[4,0,6,0,2,0,0],"split_type":[0,0,0,0,0,0,0],"sum_hessian":[1.50059E2,3.7344017E0,1.463246E2,3.1914766E0,1.4313312E2,1.383861E2,4.7470274E0],"tree_param":{"num_deleted":"0","num_feature":"12","num_nodes":"7","size_leaf_vector":"1"}},{"base_weights":[-3.6078987E-1,-5.9387263E-2,5.14232E-1,7.766061E-1,2.6484272E-2,2.100152E-2,8.856543E-1,-3.220294E-2,3.719434E-2,4.488213E-2,9.6891694E-2],"categories":[],"categories_nodes":[],"categories_segments":[],"categories_sizes":[],"default_left":[0,0,0,0,0,0,0,0,0,0,0],"id":13,"left_children":[1,-1,3,5,7,-1,9,-1,-1,-1,-1],"loss_changes":[3.3404343E1,0E0,4.416502E0,1.2047558E0,1.7045352E0,0E0,2.4039173E-1,0E0,0E0,0E0,0E0],"parents":[2147483647,0,0,2,2,3,3,4,4,6,6],"right_children":[2,-1,4,6,8,-1,10,-1,-1,-1,-1],"split_conditions":[1.5803264E0,-5.9387263E-2,1.5710032E-1,-1.0167409E0,9.8928356E-1,2.100152E-2,-6.588702E-1,-3.220294E-2,3.719434E-2,4.488213E-2,9.6891694E-2],"split_indices":[8,0,6,6,6,0,10,0,0,0,0],"split_type":[0,0,0,0,0,0,0,0,0,0,0],"sum_hessian":[1.6128758E2,1.2761549E2,3.3672096E1,2.1509346E1,1.2162748E1,3.9438486E0,1.7565498E1,6.0883684E0,6.07438E0,3.83513E0,1.3730368E1],"tree_param":{"num_deleted":"0","num_feature":"12","num_nodes":"11","size_leaf_vector":"1"}},{"base_weights":[5.7069004E-1,-5.702987E-1,6.817154E-1,-8.224617E-3,-6.8971676E-1,7.312957E-2,1.1628178E-1,-7.492336E-2,-3.8434304E-2,-1.3405518E-1,6.365485E-2,2.3056975E-2,-3.3426085E-1,-6.8599775E-2,-1.0174327E-3],"categories":[],"categories_nodes":[],"categories_segments":[],"categories_sizes":[],"default_left":[0,0,0,0,0,0,0,0,0,0,0,0,0,0,0],"id":14,"left_children":[1,3,5,-1,7,-1,9,-1,-1,11,-1,-1,13,-1,-1],"loss_changes":[3.1149559E1,1.2300057E0,6.1315155E0,0E0,3.1954765E-2,0E0,2.568472E0,0E0,0E0,1.0770248E0,0E0,0E0,1.0475627E0,0E0,0E0],"parents":[2147483647,0,0,1,1,2,2,4,4,6,6,9,9,12,12],"right_children":[2,4,6,-1,8,-1,10,-1,-1,12,-1,-1,14,-1,-1],"split_conditions":[-9.80666E-2,-2.0895708E0,-9.6959144E-2,-8.224617E-3,9.5192295E-1,7.312957E-2,1.8067563E0,-7.492336E-2,-3.8434304E-2,-9.577987E-1,6.365485E-2,2.3056975E-2,4.3596867E-1,-6.8599775E-2,-1.0174327E-3],"split_indices":[6,2,6,0,2,0,7,0,0,5,0,0,6,0,0],"split_type":[0,0,0,0,0,0,0,0,0,0,0,0,0,0,0],"sum_hessian":[2.4182509E2,2.1077602E1,2.2074748E2,4.4754605E0,1.6602142E1,2.026819E2,1.8065582E1,1.2677771E1,3.9243708E0,1.2698009E1,5.3675733E0,4.4470844E0,8.250925E0,3.4211636E0,4.829761E0],"tree_param":{"num_deleted":"0","num_feature":"12","num_nodes":"15","size_leaf_vector":"1"}},{"base_weights":[-5.407713E-1,8.748909E-2,-5.8031615E-2,-2.8892526E-2,3.9833307E-2],"categories":[],"categories_nodes":[],"categories_segments":[],"categories_sizes":[],"default_left":[0,0,0,0,0],"id":15,"left_children":[1,3,-1,-1,-1],"loss_changes":[3.5080147E0,1.1809251E0,0E0,0E0,0E0],"parents":[2147483647,0,0,1,1],"right_children":[2,4,-1,-1,-1],"split_conditions":[-7.7637756E-1,-5.366818E-1,-5.8031615E-2,-2.8892526E-2,3.9833307E-2],"split_indices":[1,10,0,0,0],"split_type":[0,0,0,0,0],"sum_hessian":[1.3815564E2,8.109237E0,1.300464E2,3.699666E0,4.409571E0],"tree_param":{"num_deleted":"0","num_feature":"12","num_nodes":"5","size_leaf_vector":"1"}},{"base_weights":[-3.371101E-1,-5.8385756E-2,5.0789845E-1,6.780477E-1,-3.6001563E-2,5.0472945E-1,1.0636703E-1,4.9728993E-3,5.960612E-1,5.9928345E-3,7.205027E-2],"categories":[],"categories_nodes":[],"categories_segments":[],"categories_sizes":[],"default_left":[0,0,0,0,0,0,0,0,0,0,0],"id":16,"left_children":[1,-1,3,5,-1,7,-1,-1,9,-1,-1],"loss_changes":[3.1972599E1,0E0,5.393589E0,1.434885E0,0E0,8.952551E-1,0E0,0E0,1.1874151E0,0E0,0E0],"parents":[2147483647,0,0,2,2,3,3,5,5,8,8],"right_children":[2,-1,4,6,-1,8,-1,-1,10,-1,-1],"split_conditions":[2.076216E0,-5.8385756E-2,2.8648433E-1,1.0937244E0,-3.6001563E-2,-6.588702E-1,1.0636703E-1,4.9728993E-3,-8.412322E-1,5.9928345E-3,7.205027E-2],"split_indices":[8,0,4,5,0,10,0,0,6,0,0],"split_type":[0,0,0,0,0,0,0,0,0,0,0],"sum_hessian":[1.5092085E2,1.17050476E2,3.3870373E1,2.8501574E1,5.368799E0,2.1256636E1,7.2449384E0,3.8117223E0,1.7444914E1,3.5654447E0,1.3879468E1],"tree_param":{"num_deleted":"0","num_feature":"12","num_nodes":"11","size_leaf_vector":"1"}},{"base_weights":[5.405461E-1,7.021021E-2,-2.2293034E-1,-4.1153595E-1,4.8731843E-1,-5.179379E-1,-3.5340216E-2,6.4794235E-2,1.4299718E-2,-3.148069E-1,-7.459741E-2,5.3893764E-2,-5.419023E-2,-7.456484E-2,-1.2540082E-2],"categories":[],"categories_nodes":[],"categories_segments":[],"categories_sizes":[],"default_left":[0,0,0,0,0,0,0,0,0,0,0,0,0,0,0],"id":17,"left_children":[1,-1,3,5,7,9,11,-1,-1,13,-1,-1,-1,-1,-1],"loss_changes":[2.8731125E1,0E0,5.722141E0,1.307116E0,4.1101003E-1,9.574051E-1,2.7280397E0,0E0,0E0,1.1585273E0,0E0,0E0,0E0,0E0,0E0],"parents":[2147483647,0,0,2,2,3,3,4,4,5,5,6,6,9,9],"right_children":[2,-1,4,6,8,10,12,-1,-1,14,-1,-1,-1,-1,-1],"split_conditions":[-1.2518911E-1,7.021021E-2,8.921344E-1,4.5991445E-1,2.7070284E-1,4.3838434E-2,7.095583E-1,6.4794235E-2,1.4299718E-2,9.499757E-2,-7.459741E-2,5.3893764E-2,-5.419023E-2,-7.456484E-2,-1.2540082E-2],"split_indices":[9,0,7,6,5,5,6,0,0,9,0,0,0,0,0],"split_type":[0,0,0,0,0,0,0,0,0,0,0,0,0,0,0],"sum_hessian":[2.3066568E2,1.904465E2,4.0219166E1,3.211235E1,8.106817E0,2.4738592E1,7.373759E0,4.9267297E0,3.180087E0,1.4342781E1,1.039581E1,3.4259386E0,3.9478202E0,3.4830732E0,1.0859709E1],"tree_param":{"num_deleted":"0","num_feature":"12","num_nodes":"15","size_leaf_vector":"1"}},{"base_weights":[-5.240041E-1,5.0699495E-2,-5.715833E-2,-1.7589724E-1,4.713662E-2,2.3534207E-2,-4.9328554E-2],"categories":[],"categories_nodes":[],"categories_segments":[],"categories_sizes":[],"default_left":[0,0,0,0,0,0,0],"id":18,"left_children":[1,3,-1,5,-1,-1,-1],"loss_changes":[3.6553802E0,1.1370423E0,0E0,1.1492344E0,0E0,0E0,0E0],"parents":[2147483647,0,0,1,1,3,3],"right_children":[2,4,-1,6,-1,-1,-1],"split_conditions":[-7.7637756E-1,-1.1921058E0,-5.715833E-2,-9.2974937E-1,4.713662E-2,2.3534207E-2,-4.9328554E-2],"split_indices":[1,2,0,3,0,0,0],"split_type":[0,0,0,0,0,0,0],"sum_hessian":[1.3162163E2,1.005866E1,1.21562965E2,6.9154415E0,3.1432178E0,3.1249523E0,3.7904894E0],"tree_param":{"num_deleted":"0","num_feature":"12","num_nodes":"7","size_leaf_vector":"1"}},{"base_weights":[-3.159178E-1,-5.7401836E-2,5.183903E-1,7.7449054E-1,1.69459E-1,9.797423E-2,3.738823E-1,4.0493417E-1,-3.38881E-2,-1.6255856E-2,8.1349425E-2,-1.4346709E-3,7.6621875E-2],"categories":[],"categories_nodes":[],"categories_segments":[],"categories_sizes":[],"default_left":[0,0,0,0,0,0,0,0,0,0,0,0,0],"id":19,"left_children":[1,-1,3,5,7,-1,9,11,-1,-1,-1,-1,-1],"loss_changes":[3.1347397E1,0E0,2.960083E0,1.2511139E0,2.0432284E0,0E0,2.0851269E0,1.7284275E0,0E0,0E0,0E0,0E0,0E0],"parents":[2147483647,0,0,2,2,3,3,4,4,6,6,7,7],"right_children":[2,-1,4,6,8,-1,10,12,-1,-1,-1,-1,-1],"split_conditions":[1.5803264E0,-5.7401836E-2,-1.3987285E-1,-1.673085E-1,8.5976523E-1,9.797423E-2,-6.962584E-1,2.2612713E-2,-3.38881E-2,-1.6255856E-2,8.1349425E-2,-1.4346709E-3,7.6621875E-2],"split_indices":[8,0,6,3,7,0,6,3,0,0,0,0,0],"split_type":[0,0,0,0,0,0,0,0,0,0,0,0,0],"sum_hessian":[1.4319292E2,1.09599365E2,3.3593544E1,1.8670563E1,1.4922981E1,1.1389506E1,7.2810564E0,1.0337722E1,4.5852594E0,3.5632217E0,3.7178347E0,5.2292824E0,5.1084394E0],"tree_param":{"num_deleted":"0","num_feature":"12","num_nodes":"13","size_leaf_vector":"1"}},{"base_weights":[5.233093E-1,6.773486E-2,-2.1773688E-1,4.4110805E-1,-4.0865517E-1,5.0758766E-3,6.3304864E-2,-5.2681994E-1,4.5851176E-3,-2.9250234E-1,-6.7107517E-1,-6.003877E-2,1.5102761E-2,-7.728808E-2,-2.4740899E-2],"categories":[],"categories_nodes":[],"categories_segments":[],"categories_sizes":[],"default_left":[0,0,0,0,0,0,0,0,0,0,0,0,0,0,0],"id":20,"left_children":[1,-1,3,5,7,-1,-1,9,-1,11,13,-1,-1,-1,-1],"loss_changes":[2.5919361E1,0E0,5.1627254E0,6.7067957E-1,1.7014365E0,0E0,0E0,6.4423275E-1,0E0,1.6266613E0,4.3929815E-1,0E0,0E0,0E0,0E0],"parents":[2147483647,0,0,2,2,3,3,4,4,7,7,9,9,10,10],"right_children":[2,-1,4,6,8,-1,-1,10,-1,12,14,-1,-1,-1,-1],"split_conditions":[1.5803264E0,6.773486E-2,-9.4137186E-1,8.8697004E-1,4.5991445E-1,5.0758766E-3,6.3304864E-2,-5.5374986E-1,4.5851176E-3,-3.649786E-1,1.7758752E0,-6.003877E-2,1.5102761E-2,-7.728808E-2,-2.4740899E-2],"split_indices":[8,0,11,1,6,0,0,6,0,3,0,0,0,0,0],"split_type":[0,0,0,0,0,0,0,0,0,0,0,0,0,0,0],"sum_hessian":[2.2477158E2,1.861608E2,3.8610786E1,8.380353E0,3.0230434E1,3.1792228E0,5.20113E0,2.3866423E1,6.3640127E0,1.0247999E1,1.3618423E1,5.840228E0,4.407771E0,1.03154E1,3.3030233E0],"tree_param":{"num_deleted":"0","num_feature":"12","num_nodes":"15","size_leaf_vector":"1"}},{"base_weights":[-4.9830395E-1,2.2273393E-1,-5.6404095E-2,-4.801691E-2,6.739431E-2,4.402998E-2,-4.8336815E-2],"categories":[],"categories_nodes":[],"categories_segments":[],"categories_sizes":[],"default_left":[0,0,0,0,0,0,0],"id":21,"left_children":[1,3,-1,5,-1,-1,-1],"loss_changes":[6.0285797E0,1.3911238E0,0E0,1.8890312E0,0E0,0E0,0E0],"parents":[2147483647,0,0,1,1,3,3],"right_children":[2,4,-1,6,-1,-1,-1],"split_conditions":[-7.7637756E-1,9.071525E-1,-5.6404095E-2,-9.2974937E-1,6.739431E-2,4.402998E-2,-4.8336815E-2],"split_indices":[1,9,0,3,0,0,0],"split_type":[0,0,0,0,0,0,0],"sum_hessian":[1.235377E2,1.0122338E1,1.1341536E2,6.884708E0,3.2376301E0,3.2396028E0,3.645105E0],"tree_param":{"num_deleted":"0","num_feature":"12","num_nodes":"7","size_leaf_vector":"1"}},{"base_weights":[-3.153745E-1,-5.6563057E-2,3.996936E-1,5.2391016E-1,-3.3602946E-2,3.5482338E-1,7.6896447E-1,6.2773436E-1,-1.7405166E-1,3.6260646E-2,9.11146E-2,6.997242E-3,8.1433564E-2,-3.7338037E-2,8.068494E-3],"categories":[],"categories_nodes":[],"categories_segments":[],"categories_sizes":[],"default_left":[0,0,0,0,0,0,0,0,0,0,0,0,0,0,0],"id":22,"left_children":[1,-1,3,5,-1,7,9,11,13,-1,-1,-1,-1,-1,-1],"loss_changes":[2.4982374E1,0E0,3.5072207E0,1.0355206E0,0E0,3.0740378E0,3.6496544E-1,1.3757992E0,4.2489114E-1,0E0,0E0,0E0,0E0,0E0,0E0],"parents":[2147483647,0,0,2,2,3,3,5,5,6,6,7,7,8,8],"right_children":[2,-1,4,6,-1,8,10,12,14,-1,-1,-1,-1,-1,-1],"split_conditions":[-1.2518911E-1,-5.6563057E-2,2.8648433E-1,5.925293E-1,-3.3602946E-2,-1.279995E-1,-7.458601E-1,-2.074238E0,-1.9540451E-1,3.6260646E-2,9.11146E-2,6.997242E-3,8.1433564E-2,-3.7338037E-2,8.068494E-3],"split_indices":[9,0,4,0,0,4,1,2,7,0,0,0,0,0,0],"split_type":[0,0,0,0,0,0,0,0,0,0,0,0,0,0,0],"sum_hessian":[1.3734186E2,1.0189139E2,3.5450474E1,3.0576035E1,4.8744373E0,1.9540846E1,1.1035189E1,1.2766257E1,6.7745895E0,3.7805622E0,7.2546268E0,3.545008E0,9.221249E0,3.5393414E0,3.235248E0],"tree_param":{"num_deleted":"0","num_feature":"12","num_nodes":"15","size_leaf_vector":"1"}},{"base_weights":[5.137614E-1,-5.2060866E-1,6.094357E-1,-1.093348E-2,-6.74619E-2,-3.8623635E-2,6.3386285E-1,6.575214E-2,2.0460911E-1,-5.32133E-2,6.411254E-2],"categories":[],"categories_nodes":[],"categories_segments":[],"categories_sizes":[],"default_left":[0,0,0,0,0,0,0,0,0,0,0],"id":23,"left_children":[1,3,5,-1,-1,-1,7,-1,9,-1,-1],"loss_changes":[2.1615448E1,1.1145229E0,5.047188E0,0E0,0E0,0E0,1.8265457E0,0E0,4.0520597E0,0E0,0E0],"parents":[2147483647,0,0,1,1,2,2,6,6,8,8],"right_children":[2,4,6,-1,-1,-1,8,-1,10,-1,-1],"split_conditions":[-1.10563174E-1,-1.0567418E0,-1.7580332E-1,-1.093348E-2,-6.74619E-2,-3.8623635E-2,2.2612713E-2,6.575214E-2,6.3619363E-1,-5.32133E-2,6.411254E-2],"split_indices":[4,7,6,0,0,0,3,0,10,0,0],"split_type":[0,0,0,0,0,0,0,0,0,0,0],"sum_hessian":[2.1421442E2,1.7760248E1,1.9645418E2,5.304602E0,1.2455647E1,4.3495874E0,1.9210458E2,1.8156572E2,1.053886E1,3.8395352E0,6.699325E0],"tree_param":{"num_deleted":"0","num_feature":"12","num_nodes":"11","size_leaf_vector":"1"}},{"base_weights":[-5.1065964E-1,6.2210694E-2,-5.5702664E-2,-2.6913485E-2,2.9362196E-2],"categories":[],"categories_nodes":[],"categories_segments":[],"categories_sizes":[],"default_left":[0,0,0,0,0],"id":24,"left_children":[1,3,-1,-1,-1],"loss_changes":[3.0567608E0,8.012218E-1,0E0,0E0,0E0],"parents":[2147483647,0,0,1,1],"right_children":[2,4,-1,-1,-1],"split_conditions":[-7.7637756E-1,-2.0308166E0,-5.5702664E-2,-2.6913485E-2,2.9362196E-2],"split_indices":[1,2,0,0,0],"split_type":[0,0,0,0,0],"sum_hessian":[1.1277451E2,8.418693E0,1.0435582E2,3.3948174E0,5.0238748E0],"tree_param":{"num_deleted":"0","num_feature":"12","num_nodes":"5","size_leaf_vector":"1"}},{"base_weights":[-3.3625698E-1,-5.582745E-2,3.1975573E-1,4.6969917E-1,-3.6875814E-2,5.145235E-2,5.879522E-1,-3.0829346E-2,3.76215E-2,7.358833E-1,2.065964E-1,3.220718E-2,8.178329E-2,-1.398453E-2,4.9860664E-2],"categories":[],"categories_nodes":[],"categories_segments":[],"categories_sizes":[],"default_left":[0,0,0,0,0,0,0,0,0,0,0,0,0,0,0],"id":25,"left_children":[1,-1,3,5,-1,7,9,-1,-1,11,13,-1,-1,-1,-1],"loss_changes":[1.9397058E1,0E0,3.683448E0,1.3724365E0,0E0,9.743541E-1,1.0898547E0,0E0,0E0,2.6123524E-1,8.3280635E-1,0E0,0E0,0E0,0E0],"parents":[2147483647,0,0,2,2,3,3,5,5,6,6,9,9,10,10],"right_children":[2,-1,4,6,-1,8,10,-1,-1,12,14,-1,-1,-1,-1],"split_conditions":[1.5803264E0,-5.582745E-2,2.0027946E-1,-1.0047109E0,-3.6875814E-2,-9.737239E-1,5.1487777E-3,-3.0829346E-2,3.76215E-2,-2.0570846E0,7.732847E-1,3.220718E-2,8.178329E-2,-1.398453E-2,4.9860664E-2],"split_indices":[8,0,4,3,0,1,4,0,0,2,3,0,0,0,0],"split_type":[0,0,0,0,0,0,0,0,0,0,0,0,0,0,0],"sum_hessian":[1.3095354E2,9.795212E1,3.3001415E1,2.736066E1,5.6407533E0,6.3470397E0,2.101362E1,3.0353906E0,3.3116488E0,1.44706745E1,6.542947E0,3.2069612E0,1.1263713E1,3.2308967E0,3.3120499E0],"tree_param":{"num_deleted":"0","num_feature":"12","num_nodes":"15","size_leaf_vector":"1"}},{"base_weights":[4.9316284E-1,6.373083E-2,-1.0869505E-1,-2.582889E-1,5.8528364E-2,1.5121154E-2,-6.502977E-2,-1.5383421E-1,3.331932E-2,-5.067425E-2,8.460708E-3],"categories":[],"categories_nodes":[],"categories_segments":[],"categories_sizes":[],"default_left":[0,0,0,0,0,0,0,0,0,0,0],"id":26,"left_children":[1,-1,3,5,-1,7,-1,9,-1,-1,-1],"loss_changes":[1.7158752E1,0E0,4.191287E0,3.515568E0,0E0,1.1393154E0,0E0,1.2131228E0,0E0,0E0,0E0],"parents":[2147483647,0,0,2,2,3,3,5,5,7,7],"right_children":[2,-1,4,6,-1,8,-1,10,-1,-1,-1],"split_conditions":[1.5803264E0,6.373083E-2,1.5046682E0,2.7070284E-1,5.8528364E-2,1.8457846E-1,-6.502977E-2,-5.7996774E-1,3.331932E-2,-5.067425E-2,8.460708E-3],"split_indices":[8,0,7,5,0,3,0,6,0,0,0],"split_type":[0,0,0,0,0,0,0,0,0,0,0],"sum_hessian":[1.9598538E2,1.5806888E2,3.7916508E1,3.1709114E1,6.2073927E0,1.9246733E1,1.2462381E1,1.2907047E1,6.3396864E0,4.750611E0,8.156436E0],"tree_param":{"num_deleted":"0","num_feature":"12","num_nodes":"11","size_leaf_vector":"1"}},{"base_weights":[-5.03582E-1,-1.7651081E-2,-5.5096705E-2,-4.881948E-2,2.809639E-1,4.8067506E-2,8.178269E-4],"categories":[],"categories_nodes":[],"categories_segments":[],"categories_sizes":[],"default_left":[0,0,0,0,0,0,0],"id":27,"left_children":[1,3,-1,-1,5,-1,-1],"loss_changes":[2.4832783E0,1.6340115E0,0E0,0E0,3.8568395E-1,0E0,0E0],"parents":[2147483647,0,0,1,1,4,4],"right_children":[2,4,-1,-1,6,-1,-1],"split_conditions":[-7.7637756E-1,-2.0308166E0,-5.5096705E-2,-4.881948E-2,-1.2977873E0,4.8067506E-2,8.178269E-4],"split_indices":[1,2,0,0,1,0,0],"split_type":[0,0,0,0,0,0,0],"sum_hessian":[1.0726963E2,9.652847E0,9.761678E1,3.5011048E0,6.1517425E0,3.1115925E0,3.0401502E0],"tree_param":{"num_deleted":"0","num_feature":"12","num_nodes":"7","size_leaf_vector":"1"}},{"base_weights":[-3.0471718E-1,-5.511573E-2,3.1569362E-1,6.0616333E-2,5.9380513E-1,-2.0285553E-1,3.1544766E-1,7.5581616E-1,7.7718906E-3,7.1004815E-3,-4.3349955E-2,6.881612E-2,-2.401084E-3,4.0478047E-2,8.411477E-2],"categories":[],"categories_nodes":[],"categories_segments":[],"categories_sizes":[],"default_left":[0,0,0,0,0,0,0,0,0,0,0,0,0,0,0],"id":28,"left_children":[1,-1,3,5,7,9,11,13,-1,-1,-1,-1,-1,-1,-1],"loss_changes":[1.873864E1,0E0,2.4579127E0,1.3699241E0,1.3379531E0,6.732755E-1,1.3170097E0,3.6911488E-2,0E0,0E0,0E0,0E0,0E0,0E0,0E0],"parents":[2147483647,0,0,2,2,3,3,4,4,5,5,6,6,7,7],"right_children":[2,-1,4,6,8,10,12,14,-1,-1,-1,-1,-1,-1,-1],"split_conditions":[1.5803264E0,-5.511573E-2,2.7070284E-1,-2.6825994E-1,1.5710032E-1,-8.081386E-1,8.308039E-3,-7.7197903E-1,7.7718906E-3,7.1004815E-3,-4.3349955E-2,6.881612E-2,-2.401084E-3,4.0478047E-2,8.411477E-2],"split_indices":[8,0,5,1,6,7,10,6,0,0,0,0,0,0,0],"split_type":[0,0,0,0,0,0,0,0,0,0,0,0,0,0,0],"sum_hessian":[1.20421585E2,8.62664E1,3.415519E1,1.845065E1,1.570454E1,9.171811E0,9.278837E0,1.1598878E1,4.1056623E0,4.5095005E0,4.6623106E0,3.9331474E0,5.34569E0,3.391321E0,8.207557E0],"tree_param":{"num_deleted":"0","num_feature":"12","num_nodes":"15","size_leaf_vector":"1"}},{"base_weights":[4.959164E-1,-4.1533905E-1,5.8698833E-1,4.5414413E-3,-5.6717712E-2,-4.3311372E-2,6.1183065E-1,6.279125E-2,3.4535176E-1,-2.8189797E-2,6.2766485E-2],"categories":[],"categories_nodes":[],"categories_segments":[],"categories_sizes":[],"default_left":[0,0,0,0,0,0,0,0,0,0,0],"id":29,"left_children":[1,3,5,-1,-1,-1,7,-1,9,-1,-1],"loss_changes":[1.5805355E1,1.2586637E0,4.595604E0,0E0,0E0,0E0,4.9985123E-1,0E0,2.2559786E0,0E0,0E0],"parents":[2147483647,0,0,1,1,2,2,6,6,8,8],"right_children":[2,4,6,-1,-1,-1,8,-1,10,-1,-1],"split_conditions":[-1.5239161E-1,-2.074238E0,-1.10563174E-1,4.5414413E-3,-5.6717712E-2,-4.3311372E-2,1.7578686E0,6.279125E-2,8.5976523E-1,-2.8189797E-2,6.2766485E-2],"split_indices":[6,2,4,0,0,0,9,0,7,0,0],"split_type":[0,0,0,0,0,0,0,0,0,0,0],"sum_hessian":[1.8651167E2,1.6623024E1,1.6988866E2,4.2939405E0,1.2329083E1,3.648193E0,1.6624046E2,1.5549983E2,1.0740634E1,3.3341696E0,7.4064646E0],"tree_param":{"num_deleted":"0","num_feature":"12","num_nodes":"11","size_leaf_vector":"1"}},{"base_weights":[-4.8316354E-1,-5.3518397E-1,1.2430834E-2,-5.448274E-2,-2.6366983E-2,-1.9156285E-2,2.433946E-2],"categories":[],"categories_nodes":[],"categories_segments":[],"categories_sizes":[],"default_left":[0,0,0,0,0,0,0],"id":30,"left_children":[1,3,5,-1,-1,-1,-1],"loss_changes":[2.560402E0,9.112549E-2,5.3601116E-1,0E0,0E0,0E0,0E0],"parents":[2147483647,0,0,1,1,2,2],"right_children":[2,4,6,-1,-1,-1,-1],"split_conditions":[3.8214082E-1,2.0595906E0,-8.7715876E-1,-5.448274E-2,-2.6366983E-2,-1.9156285E-2,2.433946E-2],"split_indices":[11,2,5,0,0,0,0],"split_type":[0,0,0,0,0,0,0],"sum_hessian":[9.805532E1,8.8668304E1,9.387016E0,8.4654976E1,4.01333E0,5.0751204E0,4.3118954E0],"tree_param":{"num_deleted":"0","num_feature":"12","num_nodes":"7","size_leaf_vector":"1"}},{"base_weights":[-3.1376255E-1,-5.4637194E-2,2.8473645E-1,3.932912E-1,-3.1942774E-2,1.6975684E-1,6.150579E-1,-4.2058095E-2,5.8936995E-2,7.161908E-2,2.7591834E-2,-3.14513E-2,2.0620797E-2],"categories":[],"categories_nodes":[],"categories_segments":[],"categories_sizes":[],"default_left":[0,0,0,0,0,0,0,0,0,0,0,0,0],"id":31,"left_children":[1,-1,3,5,-1,7,9,11,-1,-1,-1,-1,-1],"loss_changes":[1.6477997E1,0E0,2.320868E0,1.3243575E0,0E0,1.4233124E0,2.8554535E-1,8.352876E-1,0E0,0E0,0E0,0E0,0E0],"parents":[2147483647,0,0,2,2,3,3,5,5,6,6,7,7],"right_children":[2,-1,4,6,-1,8,10,12,-1,-1,-1,-1,-1],"split_conditions":[2.076216E0,-5.4637194E-2,2.290068E-1,8.695609E-2,-3.1942774E-2,7.6235205E-2,5.1487777E-3,5.579143E-1,5.8936995E-2,7.161908E-2,2.7591834E-2,-3.14513E-2,2.0620797E-2],"split_indices":[8,0,4,5,0,1,4,11,0,0,0,0,0],"split_type":[0,0,0,0,0,0,0,0,0,0,0,0,0],"sum_hessian":[1.162449E2,8.377317E1,3.2471733E1,2.782181E1,4.6499214E0,1.4734918E1,1.3086893E1,1.0389972E1,4.344946E0,9.2243595E0,3.8625329E0,4.826444E0,5.563528E0],"tree_param":{"num_deleted":"0","num_feature":"12","num_nodes":"13","size_leaf_vector":"1"}},{"base_weights":[4.7437504E-1,-3.9672613E-1,5.6367886E-1,-6.476351E-2,-6.420516E-2,6.0843807E-2,1.0449162E-1,-4.4595364E-2,2.9395178E-2,-2.7230847E-1,5.917257E-2,6.0891113E-3,-5.075043E-2],"categories":[],"categories_nodes":[],"categories_segments":[],"categories_sizes":[],"default_left":[0,0,0,0,0,0,0,0,0,0,0,0,0],"id":32,"left_children":[1,3,5,7,-1,-1,9,-1,-1,11,-1,-1,-1],"loss_changes":[1.38127365E1,1.3290339E0,3.2013206E0,1.261137E0,0E0,0E0,2.973052E0,0E0,0E0,7.6142573E-1,0E0,0E0,0E0],"parents":[2147483647,0,0,1,1,2,2,3,3,6,6,9,9],"right_children":[2,4,6,8,-1,-1,10,-1,-1,12,-1,-1,-1],"split_conditions":[-9.7406656E-2,-8.889491E-1,2.5721056E0,1.9569038E-1,-6.420516E-2,6.0843807E-2,6.3619363E-1,-4.4595364E-2,2.9395178E-2,7.304738E-2,5.917257E-2,6.0891113E-3,-5.075043E-2],"split_indices":[4,5,8,9,0,0,10,0,0,2,0,0,0],"split_type":[0,0,0,0,0,0,0,0,0,0,0,0,0],"sum_hessian":[1.7368367E2,1.582998E1,1.5785368E2,7.264287E0,8.565693E0,1.4353737E2,1.4316317E1,3.4039114E0,3.8603756E0,8.321804E0,5.9945126E0,3.7501323E0,4.5716715E0],"tree_param":{"num_deleted":"0","num_feature":"12","num_nodes":"13","size_leaf_vector":"1"}},{"base_weights":[-4.5512795E-1,2.5591436E-1,-5.4017026E-2,-1.0092523E-2,7.1134925E-2],"categories":[],"categories_nodes":[],"categories_segments":[],"categories_sizes":[],"default_left":[0,0,0,0,0],"id":33,"left_children":[1,3,-1,-1,-1],"loss_changes":[5.7437E0,1.7914374E0,0E0,0E0,0E0],"parents":[2147483647,0,0,1,1],"right_children":[2,4,-1,-1,-1],"split_conditions":[-7.7637756E-1,-1.542026E0,-5.4017026E-2,-1.0092523E-2,7.1134925E-2],"split_indices":[1,0,0,0,0],"split_type":[0,0,0,0,0],"sum_hessian":[9.170031E1,9.581306E0,8.2119E1,5.808592E0,3.7727146E0],"tree_param":{"num_deleted":"0","num_feature":"12","num_nodes":"5","size_leaf_vector":"1"}},{"base_weights":[-2.784184E-1,-5.3915706E-2,2.6115578E-1,3.913814E-1,-4.854247E-2,2.8514537E-1,7.3349476E-2,1.6349739E-1,5.955118E-2,1.8573795E-3,5.9415516E-2],"categories":[],"categories_nodes":[],"categories_segments":[],"categories_sizes":[],"default_left":[0,0,0,0,0,0,0,0,0,0,0],"id":34,"left_children":[1,-1,3,5,-1,7,-1,9,-1,-1,-1],"loss_changes":[1.5356122E1,0E0,3.6811357E0,9.22215E-1,0E0,8.61202E-1,0E0,1.2133851E0,0E0,0E0,0E0],"parents":[2147483647,0,0,2,2,3,3,5,5,7,7],"right_children":[2,-1,4,6,-1,8,-1,10,-1,-1,-1],"split_conditions":[-1.2518911E-1,-5.3915706E-2,2.290068E-1,1.0937244E0,-4.854247E-2,3.27159E-2,7.3349476E-2,4.734825E-1,5.955118E-2,1.8573795E-3,5.9415516E-2],"split_indices":[9,0,4,5,0,10,0,1,0,0,0],"split_type":[0,0,0,0,0,0,0,0,0,0,0],"sum_hessian":[1.071495E2,7.224115E1,3.4908344E1,3.0128767E1,4.7795763E0,2.438882E1,5.739948E0,1.861821E1,5.770611E0,1.4710879E1,3.90733E0],"tree_param":{"num_deleted":"0","num_feature":"12","num_nodes":"11","size_leaf_vector":"1"}},{"base_weights":[4.2076102E-1,5.9495773E-2,-2.0516187E-1,-3.1196278E-1,5.1855464E-2,-1.4174186E-1,-5.444206E-1,-6.733941E-2,1.4269767E-2,-6.453692E-2,-1.43312095E-2,2.0630479E-2,-3.2808058E-2],"categories":[],"categories_nodes":[],"categories_segments":[],"categories_sizes":[],"default_left":[0,0,0,0,0,0,0,0,0,0,0,0,0],"id":35,"left_children":[1,-1,3,5,-1,7,9,-1,11,-1,-1,-1,-1],"loss_changes":[1.9226278E1,0E0,3.1677155E0,1.2884948E0,0E0,1.7743056E0,4.8400688E-1,0E0,1.2134676E0,0E0,0E0,0E0,0E0],"parents":[2147483647,0,0,2,2,3,3,5,5,6,6,8,8],"right_children":[2,-1,4,6,-1,8,10,-1,12,-1,-1,-1,-1],"split_conditions":[1.5803264E0,5.9495773E-2,1.5046682E0,2.7070284E-1,5.1855464E-2,9.499757E-2,1.5710032E-1,-6.733941E-2,5.925293E-1,-6.453692E-2,-1.43312095E-2,2.0630479E-2,-3.2808058E-2],"split_indices":[8,0,7,5,0,9,6,0,0,0,0,0,0],"split_type":[0,0,0,0,0,0,0,0,0,0,0,0,0],"sum_hessian":[1.742139E2,1.3632391E2,3.7889984E1,3.351328E1,4.376706E0,2.0275776E1,1.3237504E1,3.8476272E0,1.6428148E1,1.008932E1,3.148183E0,1.0779164E1,5.648984E0],"tree_param":{"num_deleted":"0","num_feature":"12","num_nodes":"13","size_leaf_vector":"1"}},{"base_weights":[-4.762436E-1,7.6600276E-2,-5.3598452E-2,4.375429E-2,-1.965676E-2],"categories":[],"categories_nodes":[],"categories_segments":[],"categories_sizes":[],"default_left":[0,0,0,0,0],"id":36,"left_children":[1,3,-1,-1,-1],"loss_changes":[2.8302536E0,9.8431706E-1,0E0,0E0,0E0],"parents":[2147483647,0,0,1,1],"right_children":[2,4,-1,-1,-1],"split_conditions":[-9.2034906E-1,-5.984138E-1,-5.3598452E-2,4.375429E-2,-1.965676E-2],"split_indices":[1,10,0,0,0],"split_type":[0,0,0,0,0],"sum_hessian":[8.3451E1,8.110843E0,7.534016E1,3.2348413E0,4.876002E0],"tree_param":{"num_deleted":"0","num_feature":"12","num_nodes":"5","size_leaf_vector":"1"}},{"base_weights":[-2.6442435E-1,-5.356396E-2,2.7499917E-1,3.7893087E-1,-3.14037E-2,-1.8304404E-2,4.5344263E-1,3.1787193E-1,7.353937E-2,5.267034E-2,-7.5305277E-4],"categories":[],"categories_nodes":[],"categories_segments":[],"categories_sizes":[],"default_left":[0,0,0,0,0,0,0,0,0,0,0],"id":37,"left_children":[1,-1,3,5,-1,-1,7,9,-1,-1,-1],"loss_changes":[1.5234423E1,0E0,2.2716696E0,1.3535557E0,0E0,0E0,8.012767E-1,1.3662469E0,0E0,0E0,0E0],"parents":[2147483647,0,0,2,2,3,3,6,6,7,7],"right_children":[2,-1,4,6,-1,-1,8,10,-1,-1,-1],"split_conditions":[2.076216E0,-5.356396E-2,2.8648433E-1,-1.260737E0,-3.14037E-2,-1.8304404E-2,1.0937244E0,-1.5952562E-1,7.353937E-2,5.267034E-2,-7.5305277E-4],"split_indices":[8,0,4,5,0,0,5,4,0,0,0],"split_type":[0,0,0,0,0,0,0,0,0,0,0],"sum_hessian":[1.0212465E2,6.79615E1,3.416315E1,2.934254E1,4.8206115E0,3.2645328E0,2.6078009E1,1.904702E1,7.0309887E0,1.1224756E1,7.8222623E0],"tree_param":{"num_deleted":"0","num_feature":"12","num_nodes":"11","size_leaf_vector":"1"}},{"base_weights":[4.36766E-1,5.8389474E-2,-1.1844865E-1,-2.774804E-1,4.5245912E-2,-3.663885E-1,1.9054854E-3,-4.7505823E-1,1.2448467E-3,-6.4856686E-2,-1.9802008E-2],"categories":[],"categories_nodes":[],"categories_segments":[],"categories_sizes":[],"default_left":[0,0,0,0,0,0,0,0,0,0,0],"id":38,"left_children":[1,-1,3,5,-1,7,-1,9,-1,-1,-1],"loss_changes":[1.2793802E1,0E0,3.1637092E0,7.133372E-1,0E0,8.56509E-1,0E0,6.4457965E-1,0E0,0E0,0E0],"parents":[2147483647,0,0,2,2,3,3,5,5,7,7],"right_children":[2,-1,4,6,-1,8,-1,10,-1,-1,-1],"split_conditions":[1.5803264E0,5.8389474E-2,2.290068E-1,4.3596867E-1,4.5245912E-2,7.438759E-1,1.9054854E-3,-2.547788E-1,1.2448467E-3,-6.4856686E-2,-1.9802008E-2],"split_indices":[8,0,4,6,0,11,0,3,0,0,0],"split_type":[0,0,0,0,0,0,0,0,0,0,0],"sum_hessian":[1.5477113E2,1.2230843E2,3.2462696E1,2.5792046E1,6.6706514E0,1.9661509E1,6.1305375E0,1.5081402E1,4.5801063E0,8.448835E0,6.632567E0],"tree_param":{"num_deleted":"0","num_feature":"12","num_nodes":"11","size_leaf_vector":"1"}},{"base_weights":[-4.3948132E-1,1.623046E-1,-5.3048033E-2,3.7009487E-1,-2.4797093E-2,1.0597064E-3,6.176877E-2],"categories":[],"categories_nodes":[],"categories_segments":[],"categories_sizes":[],"default_left":[0,0,0,0,0,0,0],"id":39,"left_children":[1,3,-1,5,-1,-1,-1],"loss_changes":[4.1529427E0,9.886576E-1,0E0,6.507653E-1,0E0,0E0,0E0],"parents":[2147483647,0,0,1,1,3,3],"right_children":[2,4,-1,6,-1,-1,-1],"split_conditions":[-7.7637756E-1,8.695609E-2,-5.3048033E-2,-8.7715876E-1,-2.4797093E-2,1.0597064E-3,6.176877E-2],"split_indices":[1,5,0,5,0,0,0],"split_type":[0,0,0,0,0,0,0],"sum_hessian":[7.3264046E1,9.520488E0,6.3743557E1,6.3847632E0,3.1357245E0,3.0292206E0,3.3555427E0],"tree_param":{"num_deleted":"0","num_feature":"12","num_nodes":"7","size_leaf_vector":"1"}},{"base_weights":[-2.7468613E-1,-5.2939285E-2,2.2027743E-1,9.2539415E-2,6.4570546E-2,2.9682258E-1,-1.1919658E-1,-1.9767812E-2,4.6917477E-1,-5.1113576E-2,2.5243634E-1,7.816204E-2,1.6486827E-2,-2.0167347E-4,4.6593707E-2],"categories":[],"categories_nodes":[],"categories_segments":[],"categories_sizes":[],"default_left":[0,0,0,0,0,0,0,0,0,0,0,0,0,0,0],"id":40,"left_children":[1,-1,3,5,-1,7,9,-1,11,-1,13,-1,-1,-1,-1],"loss_changes":[1.2153363E1,0E0,1.7414589E0,1.1884662E0,0E0,1.2735424E0,2.1396718E0,0E0,8.7613845E-1,0E0,4.222318E-1,0E0,0E0,0E0,0E0],"parents":[2147483647,0,0,2,2,3,3,5,5,6,6,8,8,10,10],"right_children":[2,-1,4,6,-1,8,10,-1,12,-1,14,-1,-1,-1,-1],"split_conditions":[1.5803264E0,-5.2939285E-2,1.0937244E0,-1.673085E-1,6.4570546E-2,-6.588702E-1,9.635055E-1,-1.9767812E-2,-5.546891E-1,-5.1113576E-2,2.634919E0,7.816204E-2,1.6486827E-2,-2.0167347E-4,4.6593707E-2],"split_indices":[8,0,5,3,0,10,0,0,6,0,0,0,0,0,0],"split_type":[0,0,0,0,0,0,0,0,0,0,0,0,0,0,0],"sum_hessian":[9.447631E1,6.2331272E1,3.214504E1,2.5658422E1,6.486616E0,1.2854516E1,1.28039055E1,3.28435E0,9.570166E0,6.0490036E0,6.7549024E0,3.9480202E0,5.6221457E0,3.5338113E0,3.221091E0],"tree_param":{"num_deleted":"0","num_feature":"12","num_nodes":"15","size_leaf_vector":"1"}},{"base_weights":[4.0899327E-1,5.7409476E-2,-1.3970825E-1,-2.9248834E-1,4.34708E-2,-1.6395356E-1,-5.713374E-2,-3.482125E-1,3.0487422E-2,-4.9347043E-2,1.3123661E-3],"categories":[],"categories_nodes":[],"categories_segments":[],"categories_sizes":[],"default_left":[0,0,0,0,0,0,0,0,0,0,0],"id":41,"left_children":[1,-1,3,5,-1,7,-1,9,-1,-1,-1],"loss_changes":[1.3232885E1,0E0,3.1448178E0,9.0126896E-1,0E0,1.868716E0,0E0,7.997447E-1,0E0,0E0,0E0],"parents":[2147483647,0,0,2,2,3,3,5,5,7,7],"right_children":[2,-1,4,6,-1,8,-1,10,-1,-1,-1],"split_conditions":[1.5803264E0,5.7409476E-2,2.8648433E-1,6.280957E-2,4.34708E-2,-1.673085E-1,-5.713374E-2,-4.178766E-1,3.0487422E-2,-4.9347043E-2,1.3123661E-3],"split_indices":[8,0,4,7,0,3,0,7,0,0,0],"split_type":[0,0,0,0,0,0,0,0,0,0,0],"sum_hessian":[1.4418677E2,1.10801025E2,3.338574E1,2.6759264E1,6.626475E0,1.9403318E1,7.3559465E0,1.4113638E1,5.2896795E0,9.805944E0,4.3076935E0],"tree_param":{"num_deleted":"0","num_feature":"12","num_nodes":"11","size_leaf_vector":"1"}},{"base_weights":[-4.7085702E-1,3.1577926E-2,-5.1958823E-1,-5.3164274E-2,-2.505424E-2],"categories":[],"categories_nodes":[],"categories_segments":[],"categories_sizes":[],"default_left":[0,0,0,0,0],"id":42,"left_children":[1,-1,3,-1,-1],"loss_changes":[2.9201517E0,0E0,8.7602615E-2,0E0,0E0],"parents":[2147483647,0,0,2,2],"right_children":[2,-1,4,-1,-1],"split_conditions":[-1.0047109E0,3.1577926E-2,1.0438709E0,-5.3164274E-2,-2.505424E-2],"split_indices":[3,0,3,0,0],"split_type":[0,0,0,0,0],"sum_hessian":[7.089684E1,3.816096E0,6.708074E1,6.3269928E1,3.8108156E0],"tree_param":{"num_deleted":"0","num_feature":"12","num_nodes":"5","size_leaf_vector":"1"}},{"base_weights":[-2.4091437E-1,-5.2489996E-2,2.742391E-1,3.8357466E-1,-2.8795147E-2,2.136861E-1,6.319877E-2,2.164365E-2,5.346049E-2,4.340724E-2,-2.4747366E-2],"categories":[],"categories_nodes":[],"categories_segments":[],"categories_sizes":[],"default_left":[0,0,0,0,0,0,0,0,0,0,0],"id":43,"left_children":[1,-1,3,5,-1,7,-1,9,-1,-1,-1],"loss_changes":[1.3124975E1,0E0,2.0890088E0,1.020318E0,0E0,1.0835198E0,0E0,1.4569362E0,0E0,0E0,0E0],"parents":[2147483647,0,0,2,2,3,3,5,5,7,7],"right_children":[2,-1,4,6,-1,8,-1,10,-1,-1,-1],"split_conditions":[1.5803264E0,-5.2489996E-2,9.290548E-1,2.7070284E-1,-2.8795147E-2,1.5678906E0,6.319877E-2,-3.0211997E-1,5.346049E-2,4.340724E-2,-2.4747366E-2],"split_indices":[8,0,10,5,0,9,0,4,0,0,0],"split_type":[0,0,0,0,0,0,0,0,0,0,0],"sum_hessian":[8.773116E1,5.6542435E1,3.1188728E1,2.6376673E1,4.8120556E0,1.676878E1,9.607892E0,1.1158697E1,5.6100826E0,4.164126E0,6.9945717E0],"tree_param":{"num_deleted":"0","num_feature":"12","num_nodes":"11","size_leaf_vector":"1"}},{"base_weights":[3.9322788E-1,5.6513097E-2,-1.274746E-1,-2.6404113E-1,4.179493E-2,-4.2460185E-1,-6.3481174E-2,2.321093E-3,-6.258051E-2,3.1745013E-2,-3.431226E-1,-5.861629E-2,-3.3400957E-3],"categories":[],"categories_nodes":[],"categories_segments":[],"categories_sizes":[],"default_left":[0,0,0,0,0,0,0,0,0,0,0,0,0],"id":44,"left_children":[1,-1,3,5,-1,7,9,-1,-1,-1,11,-1,-1],"loss_changes":[1.165369E1,0E0,2.5631995E0,8.4084904E-1,0E0,1.3472176E0,1.5105331E0,0E0,0E0,0E0,5.877522E-1,0E0,0E0],"parents":[2147483647,0,0,2,2,3,3,5,5,6,6,10,10],"right_children":[2,-1,4,6,-1,8,10,-1,-1,-1,12,-1,-1],"split_conditions":[-1.2518911E-1,5.6513097E-2,2.290068E-1,-1.1678155E-1,4.179493E-2,-2.074238E0,5.925293E-1,2.321093E-3,-6.258051E-2,3.1745013E-2,1.9244709E0,-5.861629E-2,-3.3400957E-3],"split_indices":[9,0,4,4,0,2,0,0,0,0,0,0,0],"split_type":[0,0,0,0,0,0,0,0,0,0,0,0,0],"sum_hessian":[1.2838895E2,9.645896E1,3.1929983E1,2.594869E1,5.981292E0,1.379103E1,1.21576605E1,4.549645E0,9.2413845E0,5.0894876E0,7.068173E0,3.4603045E0,3.6078684E0],"tree_param":{"num_deleted":"0","num_feature":"12","num_nodes":"13","size_leaf_vector":"1"}},{"base_weights":[-4.1420412E-1,7.511765E-2,-5.0881034E-1,4.540782E-2,-1.0740349E-1,-5.2331936E-2,-1.9304013E-2,-4.8667323E-2,3.289252E-2],"categories":[],"categories_nodes":[],"categories_segments":[],"categories_sizes":[],"default_left":[0,0,0,0,0,0,0,0,0],"id":45,"left_children":[1,3,5,-1,7,-1,-1,-1,-1],"loss_changes":[3.2224665E0,8.7987214E-1,1.636467E-1,0E0,1.6359576E0,0E0,0E0,0E0,0E0],"parents":[2147483647,0,0,1,1,2,2,4,4],"right_children":[2,4,6,-1,8,-1,-1,-1,-1],"split_conditions":[-2.9421955E-1,9.499757E-2,1.6043035E0,4.540782E-2,-1.5952562E-1,-5.2331936E-2,-1.9304013E-2,-4.8667323E-2,3.289252E-2],"split_indices":[10,9,2,0,4,0,0,0,0],"split_type":[0,0,0,0,0,0,0,0,0],"sum_hessian":[6.7784744E1,1.10156555E1,5.676909E1,3.097221E0,7.918434E0,5.3646854E1,3.1222374E0,4.174475E0,3.743959E0],"tree_param":{"num_deleted":"0","num_feature":"12","num_nodes":"9","size_leaf_vector":"1"}},{"base_weights":[-2.942604E-1,3.8614172E-1,-4.748111E-1,5.503364E-1,-8.103672E-4,-5.3730614E-2,2.0121949E-2,2.020779E-2,6.731441E-2,3.9904866E-2,-3.308221E-2],"categories":[],"categories_nodes":[],"categories_segments":[],"categories_sizes":[],"default_left":[0,0,0,0,0,0,0,0,0,0,0],"id":46,"left_children":[1,3,5,7,-1,-1,9,-1,-1,-1,-1],"loss_changes":[1.0400824E1,1.1692388E0,2.0577765E0,4.078877E-1,0E0,0E0,1.2468573E0,0E0,0E0,0E0,0E0],"parents":[2147483647,0,0,1,1,2,2,3,3,6,6],"right_children":[2,4,6,8,-1,-1,10,-1,-1,-1,-1],"split_conditions":[-2.547788E-1,-5.956898E-2,2.4569182E-1,2.5721056E0,-8.103672E-4,-5.3730614E-2,8.5976523E-1,2.020779E-2,6.731441E-2,3.9904866E-2,-3.308221E-2],"split_indices":[3,6,7,8,0,0,7,0,0,0,0],"split_type":[0,0,0,0,0,0,0,0,0,0,0],"sum_hessian":[8.2172325E1,1.699359E1,6.5178734E1,1.1717557E1,5.276033E0,5.7795326E1,7.3834095E0,3.7444658E0,7.973091E0,3.4842594E0,3.8991504E0],"tree_param":{"num_deleted":"0","num_feature":"12","num_nodes":"11","size_leaf_vector":"1"}},{"base_weights":[3.9452198E-1,5.5788346E-2,-1.2876259E-1,-2.7647173E-1,4.087067E-2,1.07529005E-2,-3.8231912E-1,-5.9809763E-2,-1.9032486E-1,-3.5041545E-2,1.6357185E-2],"categories":[],"categories_nodes":[],"categories_segments":[],"categories_sizes":[],"default_left":[0,0,0,0,0,0,0,0,0,0,0],"id":47,"left_children":[1,-1,3,5,-1,-1,7,-1,9,-1,-1],"loss_changes":[1.1038286E1,0E0,2.6005135E0,1.0643599E0,0E0,0E0,7.128525E-1,0E0,7.3865795E-1,0E0,0E0],"parents":[2147483647,0,0,2,2,3,3,6,6,8,8],"right_children":[2,-1,4,6,-1,-1,8,-1,10,-1,-1],"split_conditions":[1.5803264E0,5.5788346E-2,2.8648433E-1,-1.0567418E0,4.087067E-2,1.07529005E-2,-1.1678155E-1,-5.9809763E-2,4.5991445E-1,-3.5041545E-2,1.6357185E-2],"split_indices":[8,0,4,7,0,0,4,0,6,0,0],"split_type":[0,0,0,0,0,0,0,0,0,0,0],"sum_hessian":[1.27285805E2,9.6952576E1,3.0333231E1,2.4174984E1,6.158247E0,5.2203474E0,1.8954636E1,7.9286265E0,1.102601E1,7.5985336E0,3.427476E0],"tree_param":{"num_deleted":"0","num_feature":"12","num_nodes":"11","size_leaf_vector":"1"}},{"base_weights":[-4.3783256E-1,2.1219668E-1,-5.2032776E-2,-6.8391385E-3,4.7186274E-2],"categories":[],"categories_nodes":[],"categories_segments":[],"categories_sizes":[],"default_left":[0,0,0,0,0],"id":48,"left_children":[1,3,-1,-1,-1],"loss_changes":[3.3848362E0,5.850555E-1,0E0,0E0,0E0],"parents":[2147483647,0,0,1,1],"right_children":[2,4,-1,-1,-1],"split_conditions":[-9.2034906E-1,-1.9831893E0,-5.2032776E-2,-6.8391385E-3,4.7186274E-2],"split_indices":[1,2,0,0,0],"split_type":[0,0,0,0,0],"sum_hessian":[6.0062332E1,6.58702E0,5.347531E1,3.5200105E0,3.0670092E0],"tree_param":{"num_deleted":"0","num_feature":"12","num_nodes":"5","size_leaf_vector":"1"}},{"base_weights":[-2.3103547E-1,-5.1695015E-2,1.8340465E-1,-4.1669685E-2,4.6880996E-1,-2.7732185E-1,2.911768E-1,5.8960295E-1,-3.0827633E-4,-6.435789E-2,-5.8254767E-2,5.8054008E-2,-1.1666889E-2,2.5744466E-2,6.858089E-2,-3.4691125E-2,1.759032E-2],"categories":[],"categories_nodes":[],"categories_segments":[],"categories_sizes":[],"default_left":[0,0,0,0,0,0,0,0,0,0,0,0,0,0,0,0,0],"id":49,"left_children":[1,-1,3,5,7,9,11,13,-1,15,-1,-1,-1,-1,-1,-1,-1],"loss_changes":[9.76195E0,0E0,2.2064197E0,1.6457043E0,8.620703E-1,7.551276E-1,1.1013403E0,2.0758629E-1,0E0,6.2492937E-1,0E0,0E0,0E0,0E0,0E0,0E0,0E0],"parents":[2147483647,0,0,2,2,3,3,4,4,5,5,6,6,7,7,9,9],"right_children":[2,-1,4,6,8,10,12,14,-1,16,-1,-1,-1,-1,-1,-1,-1],"split_conditions":[1.5803264E0,-5.1695015E-2,2.7070284E-1,7.6235205E-2,1.5710032E-1,-1.5952562E-1,8.819933E-2,-8.8553804E-1,-3.0827633E-4,-2.9617584E-1,-5.8254767E-2,5.8054008E-2,-1.1666889E-2,2.5744466E-2,6.858089E-2,-3.4691125E-2,1.759032E-2],"split_indices":[8,0,5,1,6,4,4,6,0,4,0,0,0,0,0,0,0],"split_type":[0,0,0,0,0,0,0,0,0,0,0,0,0,0,0,0,0],"sum_hessian":[8.0583015E1,4.7539227E1,3.304379E1,1.8951996E1,1.4091792E1,1.1193747E1,7.758249E0,1.1021193E1,3.070599E0,7.306598E0,3.8871489E0,4.2906423E0,3.4676065E0,3.300822E0,7.720371E0,3.1537786E0,4.1528196E0],"tree_param":{"num_deleted":"0","num_feature":"12","num_nodes":"17","size_leaf_vector":"1"}},{"base_weights":[3.5898572E-1,5.5067707E-2,-1.7181782E-1,-4.8002303E-1,9.661055E-2,-5.6166567E-2,-1.2765977E-2,-9.016944E-2,5.266595E-2,2.5060711E-2,-3.460164E-1,-9.538124E-3,-4.8539672E-2],"categories":[],"categories_nodes":[],"categories_segments":[],"categories_sizes":[],"default_left":[0,0,0,0,0,0,0,0,0,0,0,0,0],"id":50,"left_children":[1,-1,3,5,7,-1,-1,9,-1,-1,11,-1,-1],"loss_changes":[1.2120855E1,0E0,2.703788E0,3.632741E-1,1.4934016E0,0E0,0E0,1.2553564E0,0E0,0E0,2.3582703E-1,0E0,0E0],"parents":[2147483647,0,0,2,2,3,3,4,4,7,7,10,10],"right_children":[2,-1,4,6,8,-1,-1,10,-1,-1,12,-1,-1],"split_conditions":[1.5803264E0,5.5067707E-2,-1.10563174E-1,3.7998024E-1,9.9668086E-1,-5.6166567E-2,-1.2765977E-2,6.280957E-2,5.266595E-2,2.5060711E-2,-4.5321217E-1,-9.538124E-3,-4.8539672E-2],"split_indices":[8,0,4,3,10,0,0,7,0,0,1,0,0],"split_type":[0,0,0,0,0,0,0,0,0,0,0,0,0],"sum_hessian":[1.1719348E2,8.6072365E1,3.1121113E1,1.4120224E1,1.7000889E1,1.0981754E1,3.1384704E0,1.2403915E1,4.596974E0,5.3278894E0,7.076026E0,3.1306973E0,3.945329E0],"tree_param":{"num_deleted":"0","num_feature":"12","num_nodes":"13","size_leaf_vector":"1"}},{"base_weights":[-4.2012706E-1,1.4020254E-1,-5.171256E-2,-6.2370007E-3,3.9655685E-2],"categories":[],"categories_nodes":[],"categories_segments":[],"categories_sizes":[],"default_left":[0,0,0,0,0],"id":51,"left_children":[1,3,-1,-1,-1],"loss_changes":[3.2819242E0,5.180911E-1,0E0,0E0,0E0],"parents":[2147483647,0,0,1,1],"right_children":[2,4,-1,-1,-1],"split_conditions":[-7.7637756E-1,6.3241947E-1,-5.171256E-2,-6.2370007E-3,3.9655685E-2],"split_indices":[1,11,0,0,0],"split_type":[0,0,0,0,0],"sum_hessian":[5.8049755E1,8.500376E0,4.9549377E1,5.17096E0,3.3294158E0],"tree_param":{"num_deleted":"0","num_feature":"12","num_nodes":"5","size_leaf_vector":"1"}},{"base_weights":[-1.9359928E-1,-5.133119E-2,2.5828865E-1,4.1496557E-1,-1.097469E-1,5.759374E-1,1.0686892E-1,-3.4522735E-2,2.0464877E-2,7.779131E-2,3.2111013E-1,-3.6839824E-2,4.7694582E-2,9.5440244E-4,5.68752E-2],"categories":[],"categories_nodes":[],"categories_segments":[],"categories_sizes":[],"default_left":[0,0,0,0,0,0,0,0,0,0,0,0,0,0,0],"id":52,"left_children":[1,-1,3,5,7,9,11,-1,-1,-1,13,-1,-1,-1,-1],"loss_changes":[1.1001713E1,0E0,1.8813906E0,1.0563326E0,8.3301264E-1,5.0047874E-1,1.7521771E0,0E0,0E0,0E0,6.232671E-1,0E0,0E0,0E0,0E0],"parents":[2147483647,0,0,2,2,3,3,4,4,5,5,6,6,10,10],"right_children":[2,-1,4,6,8,10,12,-1,-1,-1,14,-1,-1,-1,-1],"split_conditions":[1.5803264E0,-5.133119E-2,1.5710032E-1,-1.673085E-1,9.8928356E-1,-5.7996774E-1,4.3838434E-2,-3.4522735E-2,2.0464877E-2,7.779131E-2,-6.161391E-1,-3.6839824E-2,4.7694582E-2,9.5440244E-4,5.68752E-2],"split_indices":[8,0,6,3,6,6,5,0,0,0,1,0,0,0,0],"split_type":[0,0,0,0,0,0,0,0,0,0,0,0,0,0,0],"sum_hessian":[7.4232285E1,4.3394543E1,3.0837746E1,2.1540287E1,9.297459E0,1.3577228E1,7.9630594E0,5.2598195E0,4.0376387E0,6.4289465E0,7.148281E0,3.4880745E0,4.4749846E0,3.625484E0,3.522797E0],"tree_param":{"num_deleted":"0","num_feature":"12","num_nodes":"15","size_leaf_vector":"1"}},{"base_weights":[3.391495E-1,5.444373E-2,-1.8475579E-1,-2.9073298E-1,2.2660017E-1,-1.7012542E-1,-4.900944E-2,5.5378206E-2,-1.5433128E-2,-2.8098676E-1,2.5359008E-2,-4.0223625E-2,1.339633E-2],"categories":[],"categories_nodes":[],"categories_segments":[],"categories_sizes":[],"default_left":[0,0,0,0,0,0,0,0,0,0,0,0,0],"id":53,"left_children":[1,-1,3,5,7,9,-1,-1,-1,11,-1,-1,-1],"loss_changes":[1.2110482E1,0E0,1.4689131E0,5.4247427E-1,9.7721314E-1,9.0500903E-1,0E0,0E0,0E0,7.8557277E-1,0E0,0E0,0E0],"parents":[2147483647,0,0,2,2,3,3,4,4,5,5,9,9],"right_children":[2,-1,4,6,8,10,-1,-1,-1,12,-1,-1,-1],"split_conditions":[1.5803264E0,5.444373E-2,1.5743852E0,4.3838434E-2,-1.9357827E-1,-7.31246E-1,-4.900944E-2,5.5378206E-2,-1.5433128E-2,-1.673085E-1,2.5359008E-2,-4.0223625E-2,1.339633E-2],"split_indices":[8,0,3,5,5,5,0,0,0,3,0,0,0],"split_type":[0,0,0,0,0,0,0,0,0,0,0,0,0],"sum_hessian":[1.10666595E2,7.9482765E1,3.118383E1,2.5028896E1,6.154934E0,1.6749384E1,8.279511E0,3.066963E0,3.0879712E0,1.3542866E1,3.206518E0,1.0504162E1,3.0387044E0],"tree_param":{"num_deleted":"0","num_feature":"12","num_nodes":"13","size_leaf_vector":"1"}},{"base_weights":[-4.284803E-1,2.2545857E-2,-5.138873E-2,-2.3404686E-2,3.9587755E-2],"categories":[],"categories_nodes":[],"categories_segments":[],"categories_sizes":[],"default_left":[0,0,0,0,0],"id":54,"left_children":[1,3,-1,-1,-1],"loss_changes":[2.1212397E0,1.0197043E0,0E0,0E0,0E0],"parents":[2147483647,0,0,1,1],"right_children":[2,4,-1,-1,-1],"split_conditions":[-9.2034906E-1,-4.8602274E-1,-5.138873E-2,-2.3404686E-2,3.9587755E-2],"split_indices":[1,10,0,0,0],"split_type":[0,0,0,0,0],"sum_hessian":[5.3766666E1,8.677523E0,4.5089146E1,5.363944E0,3.3135788E0],"tree_param":{"num_deleted":"0","num_feature":"12","num_nodes":"5","size_leaf_vector":"1"}},{"base_weights":[-1.9196717E-1,-5.136038E-2,2.3402816E-1,4.3530175E-1,-1.1626918E-2,1.5892756E-1,6.516396E-1,1.3543877E-1,-4.2604387E-2,4.924958E-2,-2.8088147E-2,3.217165E-2,7.632326E-2,-1.315261E-1,5.666709E-2,-3.5289217E-2,1.1923742E-2],"categories":[],"categories_nodes":[],"categories_segments":[],"categories_sizes":[],"default_left":[0,0,0,0,0,0,0,0,0,0,0,0,0,0,0,0,0],"id":55,"left_children":[1,-1,3,5,7,9,11,13,-1,-1,-1,-1,-1,15,-1,-1,-1],"loss_changes":[9.920626E0,0E0,1.5605029E0,9.318452E-1,9.8051685E-1,1.4478607E0,1.0021138E-1,1.4484508E0,0E0,0E0,0E0,0E0,0E0,4.96302E-1,0E0,0E0,0E0],"parents":[2147483647,0,0,2,2,3,3,4,4,5,5,6,6,7,7,13,13],"right_children":[2,-1,4,6,8,10,12,14,-1,-1,-1,-1,-1,16,-1,-1,-1],"split_conditions":[2.076216E0,-5.136038E-2,-1.5239161E-1,-6.962584E-1,2.8648433E-1,-3.649786E-1,-2.1618105E-1,7.8718287E-1,-4.2604387E-2,4.924958E-2,-2.8088147E-2,3.217165E-2,7.632326E-2,-2.4939491E-1,5.666709E-2,-3.5289217E-2,1.1923742E-2],"split_indices":[8,0,6,6,4,3,4,6,0,0,0,0,0,2,0,0,0],"split_type":[0,0,0,0,0,0,0,0,0,0,0,0,0,0,0,0,0],"sum_hessian":[7.052777E1,4.0069035E1,3.0458735E1,1.631736E1,1.4141375E1,7.926187E0,8.391172E0,1.0934271E1,3.207103E0,4.4393883E0,3.4867988E0,3.1022782E0,5.288894E0,7.182665E0,3.7516062E0,3.5986342E0,3.5840306E0],"tree_param":{"num_deleted":"0","num_feature":"12","num_nodes":"17","size_leaf_vector":"1"}},{"base_weights":[3.7448883E-1,-5.322194E-1,4.8468742E-1,-6.2180977E-2,-2.6978094E-2,5.363649E-1,1.10222094E-1,2.5929486E-2,5.4504152E-2,-1.3733843E-1,4.7406055E-2,1.3363875E-2,-3.692537E-2],"categories":[],"categories_nodes":[],"categories_segments":[],"categories_sizes":[],"default_left":[0,0,0,0,0,0,0,0,0,0,0,0,0],"id":56,"left_children":[1,3,5,-1,-1,7,9,-1,-1,11,-1,-1,-1],"loss_changes":[1.0072288E1,9.371948E-2,1.6458015E0,0E0,0E0,4.4168472E-2,1.140813E0,0E0,0E0,5.447056E-1,0E0,0E0,0E0],"parents":[2147483647,0,0,1,1,2,2,5,5,6,6,9,9],"right_children":[2,4,6,-1,-1,8,10,-1,-1,12,-1,-1,-1],"split_conditions":[-1.1678155E-1,-1.17565714E-1,1.5678906E0,-6.2180977E-2,-2.6978094E-2,-5.9497076E-1,9.9668086E-1,2.5929486E-2,5.4504152E-2,1.2838638E0,4.7406055E-2,1.3363875E-2,-3.692537E-2],"split_indices":[4,5,9,0,0,2,10,0,0,2,0,0,0],"split_type":[0,0,0,0,0,0,0,0,0,0,0,0,0],"sum_hessian":[9.722387E1,1.0120801E1,8.710307E1,6.524227E0,3.596574E0,7.616034E1,1.0942733E1,3.2503753E0,7.2909966E1,6.8823915E0,4.060342E0,3.3693254E0,3.513066E0],"tree_param":{"num_deleted":"0","num_feature":"12","num_nodes":"13","size_leaf_vector":"1"}},{"base_weights":[-3.9867982E-1,1.4479916E-1,-5.103892E-2,-1.3337596E-2,3.8780022E-2],"categories":[],"categories_nodes":[],"categories_segments":[],"categories_sizes":[],"default_left":[0,0,0,0,0],"id":57,"left_children":[1,3,-1,-1,-1],"loss_changes":[3.1276717E0,6.840948E-1,0E0,0E0,0E0],"parents":[2147483647,0,0,1,1],"right_children":[2,4,-1,-1,-1],"split_conditions":[-7.7637756E-1,-2.0308166E0,-5.103892E-2,-1.3337596E-2,3.8780022E-2],"split_indices":[1,2,0,0,0],"split_type":[0,0,0,0,0],"sum_hessian":[4.92995E1,8.355044E0,4.0944458E1,4.105924E0,4.24912E0],"tree_param":{"num_deleted":"0","num_feature":"12","num_nodes":"5","size_leaf_vector":"1"}},{"base_weights":[-1.9740729E-1,-5.061361E-2,1.7419864E-1,3.3387277E-1,-1.7901893E-1,-1.5845718E-2,4.4000158E-1,-5.5930622E-2,1.1785111E-2,-2.3804426E-2,5.9532154E-1,9.50479E-3,7.3403485E-2],"categories":[],"categories_nodes":[],"categories_segments":[],"categories_sizes":[],"default_left":[0,0,0,0,0,0,0,0,0,0,0,0,0],"id":58,"left_children":[1,-1,3,5,7,-1,9,-1,-1,-1,11,-1,-1],"loss_changes":[7.629303E0,0E0,1.7840474E0,1.1880696E0,1.213933E0,0E0,2.0239654E0,0E0,0E0,0E0,9.5916796E-1,0E0,0E0],"parents":[2147483647,0,0,2,2,3,3,4,4,6,6,10,10],"right_children":[2,-1,4,6,8,-1,10,-1,-1,-1,12,-1,-1],"split_conditions":[1.5803264E0,-5.061361E-2,1.5710032E-1,-1.0167409E0,-3.5333127E-2,-1.5845718E-2,-1.1424408E0,-5.5930622E-2,1.1785111E-2,-2.3804426E-2,-6.962584E-1,9.50479E-3,7.3403485E-2],"split_indices":[8,0,6,6,3,0,5,0,0,0,6,0,0],"split_type":[0,0,0,0,0,0,0,0,0,0,0,0,0],"sum_hessian":[6.473202E1,3.5159565E1,2.9572454E1,2.0403635E1,9.168819E0,3.5308788E0,1.6872757E1,3.6321125E0,5.536707E0,3.0454235E0,1.3827333E1,3.367512E0,1.0459822E1],"tree_param":{"num_deleted":"0","num_feature":"12","num_nodes":"13","size_leaf_vector":"1"}},{"base_weights":[3.4238768E-1,5.3357523E-2,-1.0263552E-1,-2.4236123E-1,5.0269615E-2,-5.766005E-2,-1.2964009E-1,5.127123E-2,-2.7532193E-1,-4.7449466E-2,-8.493456E-3],"categories":[],"categories_nodes":[],"categories_segments":[],"categories_sizes":[],"default_left":[0,0,0,0,0,0,0,0,0,0,0],"id":59,"left_children":[1,-1,3,5,-1,-1,7,-1,9,-1,-1],"loss_changes":[8.350555E0,0E0,2.671013E0,8.7323487E-1,0E0,0E0,2.022666E0,0E0,6.0584426E-1,0E0,0E0],"parents":[2147483647,0,0,2,2,3,3,6,6,8,8],"right_children":[2,-1,4,6,-1,-1,8,-1,10,-1,-1],"split_conditions":[-1.2518911E-1,5.3357523E-2,2.290068E-1,-3.018153E-1,5.0269615E-2,-5.766005E-2,-1.8919661E0,5.127123E-2,-4.3361816E-1,-4.7449466E-2,-8.493456E-3],"split_indices":[9,0,4,4,0,0,0,0,1,0,0],"split_type":[0,0,0,0,0,0,0,0,0,0,0],"sum_hessian":[9.650246E1,6.736334E1,2.913912E1,2.4161633E1,4.9774876E0,5.0555882E0,1.9106045E1,3.0663302E0,1.6039713E1,7.10969E0,8.930023E0],"tree_param":{"num_deleted":"0","num_feature":"12","num_nodes":"11","size_leaf_vector":"1"}},{"base_weights":[-4.1596267E-1,-5.0362676E-2,-5.073629E-2,-2.8136766E-1,3.5081528E-2,-1.0566422E-3,-4.6329465E-2],"categories":[],"categories_nodes":[],"categories_segments":[],"categories_sizes":[],"default_left":[0,0,0,0,0,0,0],"id":60,"left_children":[1,3,-1,5,-1,-1,-1],"loss_changes":[1.5964279E0,1.1012609E0,0E0,3.6065722E-1,0E0,0E0,0E0],"parents":[2147483647,0,0,1,1,3,3],"right_children":[2,4,-1,6,-1,-1,-1],"split_conditions":[-7.7637756E-1,-1.4895916E-1,-5.073629E-2,-1.023278E0,3.5081528E-2,-1.0566422E-3,-4.6329465E-2],"split_indices":[1,4,0,5,0,0,0],"split_type":[0,0,0,0,0,0,0],"sum_hessian":[4.7539116E1,9.818047E0,3.772107E1,6.419968E0,3.3980787E0,3.005023E0,3.414945E0],"tree_param":{"num_deleted":"0","num_feature":"12","num_nodes":"7","size_leaf_vector":"1"}},{"base_weights":[-1.5386063E-1,-3.1420204E-1,4.673189E-1,1.0874914E-1,-5.177295E-2,5.782023E-2,9.679578E-3,5.9112817E-2,-7.4454844E-2,-4.658948E-2,1.4745018E-1,3.2402582E-2,-1.7443744E-2],"categories":[],"categories_nodes":[],"categories_segments":[],"categories_sizes":[],"default_left":[0,0,0,0,0,0,0,0,0,0,0,0,0],"id":61,"left_children":[1,3,5,7,-1,-1,-1,-1,9,-1,11,-1,-1],"loss_changes":[6.661941E0,4.583347E0,5.119233E-1,1.6269228E0,0E0,0E0,0E0,0E0,1.2734327E0,0E0,6.027967E-1,0E0,0E0],"parents":[2147483647,0,0,1,1,2,2,3,3,8,8,10,10],"right_children":[2,4,6,8,-1,-1,-1,-1,10,-1,12,-1,-1],"split_conditions":[8.695609E-2,-1.17565714E-1,1.5710032E-1,-5.990869E-1,-5.177295E-2,5.782023E-2,9.679578E-3,5.9112817E-2,-1.089023E0,-4.658948E-2,3.1049338E-1,3.2402582E-2,-1.7443744E-2],"split_indices":[5,5,6,6,0,0,0,0,5,0,10,0,0],"split_type":[0,0,0,0,0,0,0,0,0,0,0,0,0],"sum_hessian":[6.44122E1,5.1589813E1,1.282239E1,1.6911543E1,3.467827E1,9.43758E0,3.38481E0,4.042077E0,1.2869466E1,4.258304E0,8.611162E0,5.5564547E0,3.0547075E0],"tree_param":{"num_deleted":"0","num_feature":"12","num_nodes":"13","size_leaf_vector":"1"}},{"base_weights":[3.3756143E-1,5.288102E-2,-6.324703E-2,-1.6023353E-1,3.937634E-2,-5.5436812E-2,-5.129822E-2,8.893449E-2,-3.2771024E-1,-1.6541224E-2,6.647092E-2,-5.4844E-2,-9.0690545E-4],"categories":[],"categories_nodes":[],"categories_segments":[],"categories_sizes":[],"default_left":[0,0,0,0,0,0,0,0,0,0,0,0,0],"id":62,"left_children":[1,-1,3,5,-1,7,-1,9,11,-1,-1,-1,-1],"loss_changes":[7.1129284E0,0E0,1.425008E0,9.348467E-1,0E0,8.629101E-1,0E0,2.2550435E0,5.2697366E-1,0E0,0E0,0E0,0E0],"parents":[2147483647,0,0,2,2,3,3,5,5,7,7,8,8],"right_children":[2,-1,4,6,-1,8,-1,10,12,-1,-1,-1,-1],"split_conditions":[1.5803264E0,5.288102E-2,9.9668086E-1,9.043615E-1,3.937634E-2,5.201646E-2,-5.129822E-2,-1.673085E-1,1.9244709E0,-1.6541224E-2,6.647092E-2,-5.4844E-2,-9.0690545E-4],"split_indices":[8,0,10,5,0,0,0,3,0,0,0,0,0],"split_type":[0,0,0,0,0,0,0,0,0,0,0,0,0],"sum_hessian":[9.135617E1,6.1629723E1,2.9726446E1,2.5058033E1,4.668414E0,2.0210833E1,4.8472E0,1.3647627E1,6.5632067E0,9.960375E0,3.6872516E0,3.4512594E0,3.1119473E0],"tree_param":{"num_deleted":"0","num_feature":"12","num_nodes":"13","size_leaf_vector":"1"}},{"base_weights":[-4.0195477E-1,4.957902E-3,-5.0541203E-2,-3.08065E-2,2.615876E-2],"categories":[],"categories_nodes":[],"categories_segments":[],"categories_sizes":[],"default_left":[0,0,0,0,0],"id":63,"left_children":[1,3,-1,-1,-1],"loss_changes":[1.8623328E0,8.795345E-1,0E0,0E0,0E0],"parents":[2147483647,0,0,1,1],"right_children":[2,4,-1,-1,-1],"split_conditions":[-7.7637756E-1,-1.3684165E0,-5.0541203E-2,-3.08065E-2,2.615876E-2],"split_indices":[1,1,0,0,0],"split_type":[0,0,0,0,0],"sum_hessian":[4.3178425E1,8.94571E0,3.423271E1,3.9397693E0,5.0059414E0],"tree_param":{"num_deleted":"0","num_feature":"12","num_nodes":"5","size_leaf_vector":"1"}},{"base_weights":[-1.7559546E-1,3.0719334E-1,-3.5673672E-1,7.299204E-2,4.340929E-1,-4.946986E-2,3.579853E-2,-1.4459962E-3,1.4161049E-2,7.7855014E-3,5.6240153E-2,3.425024E-2,-1.1537786E-1,-5.2858707E-2,2.1278538E-2],"categories":[],"categories_nodes":[],"categories_segments":[],"categories_sizes":[],"default_left":[0,0,0,0,0,0,0,0,0,0,0,0,0,0,0],"id":64,"left_children":[1,3,5,7,9,-1,11,-1,-1,-1,-1,-1,13,-1,-1],"loss_changes":[5.3593583E0,4.7103858E-1,2.4067178E0,4.4933055E-2,4.484353E-1,0E0,6.1469024E-1,0E0,0E0,0E0,0E0,0E0,1.3406439E0,0E0,0E0],"parents":[2147483647,0,0,1,1,2,2,3,3,4,4,6,6,12,12],"right_children":[2,4,6,8,10,-1,12,-1,-1,-1,-1,-1,14,-1,-1],"split_conditions":[-9.80666E-2,-1.8919661E0,-1.3826083E-2,-9.639735E-1,-1.209155E0,-4.946986E-2,-1.542026E0,-1.4459962E-3,1.4161049E-2,7.7855014E-3,5.6240153E-2,3.425024E-2,8.438832E-2,-5.2858707E-2,2.1278538E-2],"split_indices":[6,0,6,3,6,0,0,0,0,0,0,0,1,0,0],"split_type":[0,0,0,0,0,0,0,0,0,0,0,0,0,0,0],"sum_hessian":[5.902965E1,1.5915311E1,4.311434E1,6.1465864E0,9.768724E0,3.1709381E1,1.140496E1,3.0494413E0,3.0971448E0,3.0122502E0,6.7564745E0,3.3476756E0,8.057283E0,3.2961578E0,4.761126E0],"tree_param":{"num_deleted":"0","num_feature":"12","num_nodes":"15","size_leaf_vector":"1"}},{"base_weights":[2.9244223E-1,5.2428227E-2,-1.7122993E-1,-2.4045356E-1,2.8538821E-2,-6.632601E-2,-4.8709968E-1,-5.3477682E-2,1.1014536E-1,-5.895977E-2,-2.9527608E-2,4.2540543E-2,-5.412866E-3],"categories":[],"categories_nodes":[],"categories_segments":[],"categories_sizes":[],"default_left":[0,0,0,0,0,0,0,0,0,0,0,0,0],"id":65,"left_children":[1,-1,3,5,-1,7,9,-1,11,-1,-1,-1,-1],"loss_changes":[9.195192E0,0E0,9.8491573E-1,1.0721035E0,0E0,1.4007022E0,3.2037497E-2,0E0,6.765524E-1,0E0,0E0,0E0,0E0],"parents":[2147483647,0,0,2,2,3,3,5,5,6,6,8,8],"right_children":[2,-1,4,6,-1,8,10,-1,12,-1,-1,-1,-1],"split_conditions":[1.5803264E0,5.2428227E-2,3.3943636E0,1.5678906E0,2.8538821E-2,1.7560126E-1,3.8366103E-1,-5.3477682E-2,-7.957254E-1,-5.895977E-2,-2.9527608E-2,4.2540543E-2,-5.412866E-3],"split_indices":[8,0,0,9,0,9,1,0,7,0,0,0,0],"split_type":[0,0,0,0,0,0,0,0,0,0,0,0,0],"sum_hessian":[8.370335E1,5.571477E1,2.7988575E1,2.4715145E1,3.27343E0,1.5231151E1,9.483995E0,3.6121514E0,1.1618999E1,4.829683E0,4.6543126E0,3.4357686E0,8.18323E0],"tree_param":{"num_deleted":"0","num_feature":"12","num_nodes":"13","size_leaf_vector":"1"}},{"base_weights":[-3.9155242E-1,2.9404668E-2,-4.6745217E-1,-5.1090002E-2,-1.3228938E-3],"categories":[],"categories_nodes":[],"categories_segments":[],"categories_sizes":[],"default_left":[0,0,0,0,0],"id":66,"left_children":[1,-1,3,-1,-1],"loss_changes":[2.294478E0,0E0,7.373781E-1,0E0,0E0],"parents":[2147483647,0,0,2,2],"right_children":[2,-1,4,-1,-1],"split_conditions":[-1.0047109E0,2.9404668E-2,9.8763525E-1,-5.1090002E-2,-1.3228938E-3],"split_indices":[3,0,3,0,0],"split_type":[0,0,0,0,0],"sum_hessian":[4.045191E1,3.7454333E0,3.6706474E1,3.338803E1,3.3184457E0],"tree_param":{"num_deleted":"0","num_feature":"12","num_nodes":"5","size_leaf_vector":"1"}},{"base_weights":[-1.2579662E-1,-4.9679853E-2,1.9416279E-1,2.9177764E-1,-1.7431632E-1,9.062654E-2,5.2542466E-1,-4.115827E-2,1.19657945E-2,5.759261E-2,-7.9871416E-2,6.2389202E-2,1.930525E-2,-5.9880633E-2,2.167853E-2],"categories":[],"categories_nodes":[],"categories_segments":[],"categories_sizes":[],"default_left":[0,0,0,0,0,0,0,0,0,0,0,0,0,0,0],"id":67,"left_children":[1,-1,3,5,7,9,11,-1,-1,-1,13,-1,-1,-1,-1],"loss_changes":[7.1985025E0,0E0,1.2322056E0,1.1902685E0,5.7268596E-1,1.3171041E0,2.7152967E-1,0E0,0E0,0E0,2.0150938E0,0E0,0E0,0E0,0E0],"parents":[2147483647,0,0,2,2,3,3,4,4,5,5,6,6,10,10],"right_children":[2,-1,4,6,8,10,12,-1,-1,-1,14,-1,-1,-1,-1],"split_conditions":[1.5803264E0,-4.9679853E-2,2.004212E0,4.3838434E-2,3.19911E0,-2.6121523E0,1.5710032E-1,-4.115827E-2,1.19657945E-2,5.759261E-2,-1.9371601E0,6.2389202E-2,1.930525E-2,-5.9880633E-2,2.167853E-2],"split_indices":[8,0,2,5,2,0,6,0,0,0,2,0,0,0,0],"split_type":[0,0,0,0,0,0,0,0,0,0,0,0,0,0,0],"sum_hessian":[5.8829067E1,2.6985699E1,3.1843367E1,2.5338919E1,6.504449E0,1.4362151E1,1.0976767E1,3.3780024E0,3.1264465E0,3.115732E0,1.124642E1,7.7914205E0,3.1853461E0,3.720215E0,7.5262046E0],"tree_param":{"num_deleted":"0","num_feature":"12","num_nodes":"15","size_leaf_vector":"1"}},{"base_weights":[3.3242688E-1,5.2013136E-2,-2.3816612E-2,-5.2493192E-2,5.947856E-2,2.776795E-1,-2.5305188E-1,5.272284E-1,2.4256343E-3,-4.9754295E-2,2.2772986E-2,6.5425426E-2,2.9602408E-2,-2.3497812E-2,2.496769E-2],"categories":[],"categories_nodes":[],"categories_segments":[],"categories_sizes":[],"default_left":[0,0,0,0,0,0,0,0,0,0,0,0,0,0,0],"id":68,"left_children":[1,-1,3,-1,5,7,9,11,13,-1,-1,-1,-1,-1,-1],"loss_changes":[5.275401E0,0E0,1.2048079E0,0E0,1.7756126E0,1.042982E0,1.3833325E0,4.036641E-2,5.4196995E-1,0E0,0E0,0E0,0E0,0E0,0E0],"parents":[2147483647,0,0,2,2,4,4,5,5,6,6,7,7,8,8],"right_children":[2,-1,4,-1,6,8,10,12,14,-1,-1,-1,-1,-1,-1],"split_conditions":[1.5803264E0,5.2013136E-2,1.2995216E-1,-5.2493192E-2,4.3838434E-2,1.5678906E0,4.5991445E-1,-2.1618105E-1,8.5976523E-1,-4.9754295E-2,2.2772986E-2,6.5425426E-2,2.9602408E-2,-2.3497812E-2,2.496769E-2],"split_indices":[8,0,9,0,5,9,6,4,7,0,0,0,0,0,0],"split_type":[0,0,0,0,0,0,0,0,0,0,0,0,0,0,0],"sum_hessian":[7.770693E1,5.0590687E1,2.7116245E1,3.1091428E0,2.4007103E1,1.4202668E1,9.804435E0,6.9690266E0,7.233641E0,6.476228E0,3.3282068E0,3.3169155E0,3.6521115E0,3.7156327E0,3.5180085E0],"tree_param":{"num_deleted":"0","num_feature":"12","num_nodes":"15","size_leaf_vector":"1"}},{"base_weights":[-4.0314218E-1,1.01028524E-1,-5.0647926E-2,2.2606669E-2,-4.3425667E-3],"categories":[],"categories_nodes":[],"categories_segments":[],"categories_sizes":[],"default_left":[0,0,0,0,0],"id":69,"left_children":[1,3,-1,-1,-1],"loss_changes":[2.0112033E0,1.404621E-1,0E0,0E0,0E0],"parents":[2147483647,0,0,1,1],"right_children":[2,4,-1,-1,-1],"split_conditions":[-1.1519722E0,-6.570314E-1,-5.0647926E-2,2.2606669E-2,-4.3425667E-3],"split_indices":[1,10,0,0,0],"split_type":[0,0,0,0,0],"sum_hessian":[3.662097E1,6.233026E0,3.0387945E1,3.0382094E0,3.1948168E0],"tree_param":{"num_deleted":"0","num_feature":"12","num_nodes":"5","size_leaf_vector":"1"}},{"base_weights":[-1.6562955E-1,-4.939353E-2,1.4260098E-1,-4.4988275E-2,4.296424E-1,1.6490392E-1,-2.8869203E-1,5.723269E-2,8.53319E-3,3.6187053E-2,-1.4271848E-2,-5.3617198E-2,-4.0372685E-3],"categories":[],"categories_nodes":[],"categories_segments":[],"categories_sizes":[],"default_left":[0,0,0,0,0,0,0,0,0,0,0,0,0],"id":70,"left_children":[1,-1,3,5,7,9,11,-1,-1,-1,-1,-1,-1],"loss_changes":[5.4350324E0,0E0,1.5333931E0,9.63749E-1,5.0179195E-1,6.7326224E-1,5.1000476E-1,0E0,0E0,0E0,0E0,0E0,0E0],"parents":[2147483647,0,0,2,2,3,3,4,4,5,5,6,6],"right_children":[2,-1,4,6,8,10,12,-1,-1,-1,-1,-1,-1],"split_conditions":[1.5803264E0,-4.939353E-2,2.7070284E-1,-2.4464609E-1,2.841568E-1,-9.714345E-1,3.724325E-2,5.723269E-2,8.53319E-3,3.6187053E-2,-1.4271848E-2,-5.3617198E-2,-4.0372685E-3],"split_indices":[8,0,5,6,2,5,1,0,0,0,0,0,0],"split_type":[0,0,0,0,0,0,0,0,0,0,0,0,0],"sum_hessian":[5.2013073E1,2.4894596E1,2.7118477E1,1.6910368E1,1.020811E1,9.259166E0,7.6512027E0,6.7490277E0,3.459082E0,5.5373354E0,3.72183E0,3.2514951E0,4.3997073E0],"tree_param":{"num_deleted":"0","num_feature":"12","num_nodes":"13","size_leaf_vector":"1"}},{"base_weights":[2.8704202E-1,5.1659185E-2,-1.8161227E-1,-2.881867E-1,3.4858584E-2,1.10292705E-2,-3.7980878E-1,-4.5664784E-1,-2.5354421E-3,-1.6348306E-2,-5.2930612E-2],"categories":[],"categories_nodes":[],"categories_segments":[],"categories_sizes":[],"default_left":[0,0,0,0,0,0,0,0,0,0,0],"id":71,"left_children":[1,-1,3,5,-1,-1,7,9,-1,-1,-1],"loss_changes":[7.835455E0,0E0,1.4791343E0,8.035817E-1,0E0,0E0,4.5654345E-1,2.1310043E-1,0E0,0E0,0E0],"parents":[2147483647,0,0,2,2,3,3,6,6,7,7],"right_children":[2,-1,4,6,-1,-1,8,10,-1,-1,-1],"split_conditions":[-1.2518911E-1,5.1659185E-2,9.9668086E-1,-2.074238E0,3.4858584E-2,1.10292705E-2,4.5991445E-1,-9.204565E-1,-2.5354421E-3,-1.6348306E-2,-5.2930612E-2],"split_indices":[9,0,10,2,0,0,6,5,0,0,0],"split_type":[0,0,0,0,0,0,0,0,0,0,0],"sum_hessian":[7.096199E1,4.756303E1,2.3398958E1,1.9862814E1,3.5361433E0,3.6751616E0,1.6187653E1,1.3066721E1,3.1209319E0,3.2407644E0,9.825956E0],"tree_param":{"num_deleted":"0","num_feature":"12","num_nodes":"11","size_leaf_vector":"1"}},{"base_weights":[-3.3090806E-1,1.628511E-1,-4.9791005E-2,-2.2058595E-2,6.098587E-2],"categories":[],"categories_nodes":[],"categories_segments":[],"categories_sizes":[],"default_left":[0,0,0,0,0],"id":72,"left_children":[1,3,-1,-1,-1],"loss_changes":[3.1278563E0,1.8643062E0,0E0,0E0,0E0],"parents":[2147483647,0,0,1,1],"right_children":[2,4,-1,-1,-1],"split_conditions":[-7.7637756E-1,-1.542026E0,-4.9791005E-2,-2.2058595E-2,6.098587E-2],"split_indices":[1,0,0,0,0],"split_type":[0,0,0,0,0],"sum_hessian":[3.594903E1,9.092107E0,2.6856926E1,5.1667047E0,3.925402E0],"tree_param":{"num_deleted":"0","num_feature":"12","num_nodes":"5","size_leaf_vector":"1"}},{"base_weights":[-1.6162576E-1,-4.7873378E-2,1.2324752E-1,-5.5442974E-2,3.7272394E-1,-1.7061953E-1,2.7672967E-2,5.6104094E-2,5.1583517E-3,7.138112E-3,-3.7137147E-2],"categories":[],"categories_nodes":[],"categories_segments":[],"categories_sizes":[],"default_left":[0,0,0,0,0,0,0,0,0,0,0],"id":73,"left_children":[1,-1,3,5,7,9,-1,-1,-1,-1,-1],"loss_changes":[4.8125253E0,0E0,1.2918134E0,7.161578E-1,6.985686E-1,6.8730724E-1,0E0,0E0,0E0,0E0,0E0],"parents":[2147483647,0,0,2,2,3,3,4,4,5,5],"right_children":[2,-1,4,6,8,10,-1,-1,-1,-1,-1],"split_conditions":[8.519094E-2,-4.7873378E-2,8.695609E-2,9.8928356E-1,5.1487777E-3,-5.546891E-1,2.7672967E-2,5.6104094E-2,5.1583517E-3,7.138112E-3,-3.7137147E-2],"split_indices":[9,0,5,6,4,6,0,0,0,0,0],"split_type":[0,0,0,0,0,0,0,0,0,0,0],"sum_hessian":[5.1620697E1,2.4106224E1,2.7514473E1,1.6484798E1,1.1029674E1,1.2601682E1,3.8831172E0,6.4817452E0,4.547928E0,6.0060244E0,6.595658E0],"tree_param":{"num_deleted":"0","num_feature":"12","num_nodes":"11","size_leaf_vector":"1"}},{"base_weights":[3.0888137E-1,5.1265974E-2,-5.493182E-2,-1.871141E-1,3.697502E-2,-5.024222E-3,-5.127866E-2,2.9757118E-2,-2.0164637E-1,2.7292965E-3,-4.0356185E-2],"categories":[],"categories_nodes":[],"categories_segments":[],"categories_sizes":[],"default_left":[0,0,0,0,0,0,0,0,0,0,0],"id":74,"left_children":[1,-1,3,5,-1,7,-1,-1,9,-1,-1],"loss_changes":[5.017123E0,0E0,1.4761168E0,1.1702876E0,0E0,8.7482774E-1,0E0,0E0,4.2230368E-1,0E0,0E0],"parents":[2147483647,0,0,2,2,3,3,5,5,8,8],"right_children":[2,-1,4,6,-1,8,-1,-1,10,-1,-1],"split_conditions":[1.5803264E0,5.1265974E-2,2.290068E-1,4.3838434E-2,3.697502E-2,-1.8919661E0,-5.127866E-2,2.9757118E-2,5.6184407E-2,2.7292965E-3,-4.0356185E-2],"split_indices":[8,0,4,5,0,0,0,0,7,0,0],"split_type":[0,0,0,0,0,0,0,0,0,0,0],"sum_hessian":[6.6293594E1,4.2230434E1,2.406316E1,1.8777931E1,5.2852297E0,1.2695214E1,6.082717E0,4.7979307E0,7.8972836E0,4.1062703E0,3.7910132E0],"tree_param":{"num_deleted":"0","num_feature":"12","num_nodes":"11","size_leaf_vector":"1"}},{"base_weights":[-3.4285614E-1,1.09973185E-1,-4.9489275E-2,-2.5937377E-2,3.3844005E-2],"categories":[],"categories_nodes":[],"categories_segments":[],"categories_sizes":[],"default_left":[0,0,0,0,0],"id":75,"left_children":[1,3,-1,-1,-1],"loss_changes":[2.44272E0,8.9261043E-1,0E0,0E0,0E0],"parents":[2147483647,0,0,1,1],"right_children":[2,4,-1,-1,-1],"split_conditions":[-7.7637756E-1,-8.7715876E-1,-4.9489275E-2,-2.5937377E-2,3.3844005E-2],"split_indices":[1,5,0,0,0],"split_type":[0,0,0,0,0],"sum_hessian":[3.3690067E1,8.537738E0,2.5152327E1,3.2111723E0,5.3265657E0],"tree_param":{"num_deleted":"0","num_feature":"12","num_nodes":"5","size_leaf_vector":"1"}},{"base_weights":[-1.2966079E-1,-4.8749875E-2,1.5983155E-1,3.0737224E-1,-5.6650683E-2,-5.7511416E-4,4.4191584E-1,-3.2176834E-2,2.428979E-2,6.064268E-2,1.6942036E-3],"categories":[],"categories_nodes":[],"categories_segments":[],"categories_sizes":[],"default_left":[0,0,0,0,0,0,0,0,0,0,0],"id":76,"left_children":[1,-1,3,5,7,-1,9,-1,-1,-1,-1],"loss_changes":[4.9906344E0,0E0,8.787891E-1,6.847619E-1,1.0132698E0,0E0,7.825115E-1,0E0,0E0,0E0,0E0],"parents":[2147483647,0,0,2,2,3,3,4,4,6,6],"right_children":[2,-1,4,6,8,-1,10,-1,-1,-1,-1],"split_conditions":[1.5803264E0,-4.8749875E-2,-5.956898E-2,-2.074238E0,9.8928356E-1,-5.7511416E-4,9.5192295E-1,-3.2176834E-2,2.428979E-2,6.064268E-2,1.6942036E-3],"split_indices":[8,0,6,2,6,0,2,0,0,0,0],"split_type":[0,0,0,0,0,0,0,0,0,0,0],"sum_hessian":[4.6424007E1,2.0455381E1,2.5968626E1,1.5193703E1,1.0774923E1,4.854072E0,1.0339631E1,5.676616E0,5.0983076E0,7.1462736E0,3.1933575E0],"tree_param":{"num_deleted":"0","num_feature":"12","num_nodes":"11","size_leaf_vector":"1"}},{"base_weights":[2.7615368E-1,5.0965507E-2,-8.2159705E-2,-1.9673142E-1,4.6516392E-2,-7.138403E-2,-4.2850617E-2,-1.9395238E-1,2.4128554E-2,-3.911927E-2,3.4851425E-3],"categories":[],"categories_nodes":[],"categories_segments":[],"categories_sizes":[],"default_left":[0,0,0,0,0,0,0,0,0,0,0],"id":77,"left_children":[1,-1,3,5,-1,7,-1,9,-1,-1,-1],"loss_changes":[5.6705837E0,0E0,1.810007E0,6.48188E-1,0E0,6.738921E-1,0E0,5.691537E-1,0E0,0E0,0E0],"parents":[2147483647,0,0,2,2,3,3,5,5,7,7],"right_children":[2,-1,4,6,-1,8,-1,10,-1,-1,-1],"split_conditions":[1.5803264E0,5.0965507E-2,2.8648433E-1,4.3838434E-2,4.6516392E-2,-7.31246E-1,-4.2850617E-2,-9.737239E-1,2.4128554E-2,-3.911927E-2,3.4851425E-3],"split_indices":[8,0,4,5,0,5,0,1,0,0,0],"split_type":[0,0,0,0,0,0,0,0,0,0,0],"sum_hessian":[6.627544E1,3.987064E1,2.6404797E1,2.2363901E1,4.0408964E0,1.5363221E1,7.0006795E0,1.1309512E1,4.0537086E0,5.692534E0,5.616978E0],"tree_param":{"num_deleted":"0","num_feature":"12","num_nodes":"11","size_leaf_vector":"1"}},{"base_weights":[-3.0200055E-1,1.4942351E-1,-4.9131732E-2,-1.4377834E-1,6.36544E-2,2.123717E-2,-4.47762E-2],"categories":[],"categories_nodes":[],"categories_segments":[],"categories_sizes":[],"default_left":[0,0,0,0,0,0,0],"id":78,"left_children":[1,3,-1,5,-1,-1,-1],"loss_changes":[2.818071E0,1.5563028E0,0E0,8.7653863E-1,0E0,0E0,0E0],"parents":[2147483647,0,0,1,1,3,3],"right_children":[2,4,-1,6,-1,-1,-1],"split_conditions":[-7.7637756E-1,-1.1921058E0,-4.9131732E-2,1.2995216E-1,6.36544E-2,2.123717E-2,-4.47762E-2],"split_indices":[1,2,0,9,0,0,0],"split_type":[0,0,0,0,0,0,0],"sum_hessian":[3.1115463E1,9.255805E0,2.185966E1,6.217987E0,3.037818E0,3.0020866E0,3.2159007E0],"tree_param":{"num_deleted":"0","num_feature":"12","num_nodes":"7","size_leaf_vector":"1"}},{"base_weights":[-1.2821688E-1,-4.8458975E-2,1.3931371E-1,3.4624875E-2,4.7248513E-2,-1.4979401E-1,3.078665E-1,8.1390254E-2,-5.8867574E-2,4.793738E-2,1.1812754E-2,-1.7940594E-2,2.7497023E-2],"categories":[],"categories_nodes":[],"categories_segments":[],"categories_sizes":[],"default_left":[0,0,0,0,0,0,0,0,0,0,0,0,0],"id":79,"left_children":[1,-1,3,5,-1,7,9,11,-1,-1,-1,-1,-1],"loss_changes":[4.43476E0,0E0,9.2334145E-1,1.1335061E0,0E0,1.4233661E0,2.3698956E-1,5.419458E-1,0E0,0E0,0E0,0E0,0E0],"parents":[2147483647,0,0,2,2,3,3,5,5,6,6,7,7],"right_children":[2,-1,4,6,-1,8,10,12,-1,-1,-1,-1,-1],"split_conditions":[1.5803264E0,-4.8458975E-2,1.0937244E0,5.137118E-1,4.7248513E-2,-1.673085E-1,8.637105E-1,-1.0047109E0,-5.8867574E-2,4.793738E-2,1.1812754E-2,-1.7940594E-2,2.7497023E-2],"split_indices":[8,0,5,0,0,3,2,3,0,0,0,0,0],"split_type":[0,0,0,0,0,0,0,0,0,0,0,0,0],"sum_hessian":[4.4806805E1,1.886531E1,2.5941494E1,2.0579079E1,5.362416E0,1.2556269E1,8.022809E0,8.757658E0,3.7986114E0,3.41209E0,4.6107197E0,3.7622597E0,4.9953976E0],"tree_param":{"num_deleted":"0","num_feature":"12","num_nodes":"13","size_leaf_vector":"1"}},{"base_weights":[2.3071158E-1,-3.0945373E-1,3.817885E-1,-4.1458213E-1,-1.2801898E-4,4.5914194E-1,-3.9174344E-2,-1.0481461E-2,-5.536696E-2,5.3065576E-2,-1.1247527E-2],"categories":[],"categories_nodes":[],"categories_segments":[],"categories_sizes":[],"default_left":[0,0,0,0,0,0,0,0,0,0,0],"id":80,"left_children":[1,3,5,7,-1,9,-1,-1,-1,-1,-1],"loss_changes":[5.0510697E0,4.4538212E-1,3.0330563E0,3.8400078E-1,0E0,1.8505535E0,0E0,0E0,0E0,0E0,0E0],"parents":[2147483647,0,0,1,1,2,2,3,3,5,5],"right_children":[2,4,6,8,-1,10,-1,-1,-1,-1,-1],"split_conditions":[-1.673085E-1,-7.621637E-2,9.330517E-1,-1.0781144E0,-1.2801898E-4,-3.151527E-3,-3.9174344E-2,-1.0481461E-2,-5.536696E-2,5.3065576E-2,-1.1247527E-2],"split_indices":[3,0,5,7,0,0,0,0,0,0,0],"split_type":[0,0,0,0,0,0,0,0,0,0,0],"sum_hessian":[5.9447685E1,1.2763681E1,4.6684006E1,9.259623E0,3.5040581E0,4.2809475E1,3.8745284E0,3.4126818E0,5.846941E0,3.8112907E1,4.696567E0],"tree_param":{"num_deleted":"0","num_feature":"12","num_nodes":"11","size_leaf_vector":"1"}},{"base_weights":[-3.2756725E-1,8.239952E-2,-4.9173765E-2,-1.6033156E-2,3.1159414E-2],"categories":[],"categories_nodes":[],"categories_segments":[],"categories_sizes":[],"default_left":[0,0,0,0,0],"id":81,"left_children":[1,3,-1,-1,-1],"loss_changes":[2.1217613E0,5.8951956E-1,0E0,0E0,0E0],"parents":[2147483647,0,0,1,1],"right_children":[2,4,-1,-1,-1],"split_conditions":[-9.737239E-1,-5.5374986E-1,-4.9173765E-2,-1.6033156E-2,3.1159414E-2],"split_indices":[1,6,0,0,0],"split_type":[0,0,0,0,0],"sum_hessian":[2.9922827E1,8.698642E0,2.1224186E1,4.3704867E0,4.328155E0],"tree_param":{"num_deleted":"0","num_feature":"12","num_nodes":"5","size_leaf_vector":"1"}},{"base_weights":[-8.544839E-2,-4.80834E-2,1.6532099E-1,3.8338026E-1,-1.569922E-2,7.402248E-3,6.0649008E-2,-1.374591E-1,3.435579E-2,-3.8331803E-2,9.468105E-2,2.4947679E-2,-9.062351E-3],"categories":[],"categories_nodes":[],"categories_segments":[],"categories_sizes":[],"default_left":[0,0,0,0,0,0,0,0,0,0,0,0,0],"id":82,"left_children":[1,-1,3,5,7,-1,-1,9,-1,-1,11,-1,-1],"loss_changes":[4.5847716E0,0E0,1.1329118E0,8.5159683E-1,7.7159536E-1,0E0,0E0,7.8293896E-1,0E0,0E0,2.3862228E-1,0E0,0E0],"parents":[2147483647,0,0,2,2,3,3,4,4,7,7,10,10],"right_children":[2,-1,4,6,8,-1,-1,10,-1,-1,12,-1,-1],"split_conditions":[-1.2518911E-1,-4.80834E-2,-1.279995E-1,2.3231241E-1,1.0937244E0,7.402248E-3,6.0649008E-2,5.925293E-1,3.435579E-2,-3.8331803E-2,1.9244709E0,2.4947679E-2,-9.062351E-3],"split_indices":[9,0,4,9,5,0,0,0,0,0,0,0,0],"split_type":[0,0,0,0,0,0,0,0,0,0,0,0,0],"sum_hessian":[4.4438755E1,1.6890398E1,2.7548357E1,1.1988713E1,1.5559643E1,5.581433E0,6.407281E0,1.2082131E1,3.4775116E0,5.551412E0,6.530719E0,3.3695936E0,3.1611252E0],"tree_param":{"num_deleted":"0","num_feature":"12","num_nodes":"13","size_leaf_vector":"1"}},{"base_weights":[2.6920456E-1,5.032248E-2,-4.3797035E-2,-1.15590885E-1,3.6346782E-2,6.099893E-2,-3.179477E-1,-1.2152304E-1,5.0754447E-2,-7.5262673E-3,-4.1658837E-1,1.1885653E-2,-5.1457603E-2,-5.0252218E-2,-2.2536196E-2],"categories":[],"categories_nodes":[],"categories_segments":[],"categories_sizes":[],"default_left":[0,0,0,0,0,0,0,0,0,0,0,0,0,0,0],"id":83,"left_children":[1,-1,3,5,-1,7,9,11,-1,-1,13,-1,-1,-1,-1],"loss_changes":[4.403069E0,0E0,8.170625E-1,8.517673E-1,0E0,1.1438696E0,2.323488E-1,1.0279036E0,0E0,0E0,1.1833787E-2,0E0,0E0,0E0,0E0],"parents":[2147483647,0,0,2,2,3,3,5,5,6,6,7,7,10,10],"right_children":[2,-1,4,6,-1,8,10,12,-1,-1,14,-1,-1,-1,-1],"split_conditions":[1.5803264E0,5.032248E-2,9.9668086E-1,1.292538E0,3.6346782E-2,-4.9298874E-1,-3.151527E-3,-4.1853583E-1,5.0754447E-2,-7.5262673E-3,1.9084938E0,1.1885653E-2,-5.1457603E-2,-5.0252218E-2,-2.2536196E-2],"split_indices":[8,0,10,9,0,7,0,6,0,0,0,0,0,0,0],"split_type":[0,0,0,0,0,0,0,0,0,0,0,0,0,0,0],"sum_hessian":[5.881034E1,3.3303074E1,2.5507267E1,2.2293484E1,3.2137835E0,1.2277708E1,1.0015777E1,9.232043E0,3.045665E0,3.4039817E0,6.6117945E0,6.161474E0,3.0705686E0,3.4386394E0,3.1731553E0],"tree_param":{"num_deleted":"0","num_feature":"12","num_nodes":"15","size_leaf_vector":"1"}},{"base_weights":[-3.343372E-1,5.2812867E-2,-4.902452E-2,-1.4416434E-2,2.4869552E-2],"categories":[],"categories_nodes":[],"categories_segments":[],"categories_sizes":[],"default_left":[0,0,0,0,0],"id":84,"left_children":[1,3,-1,-1,-1],"loss_changes":[1.7136421E0,3.8042313E-1,0E0,0E0,0E0],"parents":[2147483647,0,0,1,1],"right_children":[2,4,-1,-1,-1],"split_conditions":[-2.9421955E-1,-1.542026E0,-4.902452E-2,-1.4416434E-2,2.4869552E-2],"split_indices":[10,0,0,0,0],"split_type":[0,0,0,0,0],"sum_hessian":[2.6961504E1,7.930292E0,1.9031212E1,4.085745E0,3.8445477E0],"tree_param":{"num_deleted":"0","num_feature":"12","num_nodes":"5","size_leaf_vector":"1"}},{"base_weights":[-1.7308785E-1,-4.858915E-2,3.1051924E-2,2.6189092E-1,-1.3481312E-1,-3.498048E-3,5.415274E-2,-4.507925E-2,1.3160186E-1,3.395786E-2,-1.2418891E-2],"categories":[],"categories_nodes":[],"categories_segments":[],"categories_sizes":[],"default_left":[0,0,0,0,0,0,0,0,0,0,0],"id":85,"left_children":[1,-1,3,5,7,-1,-1,-1,9,-1,-1],"loss_changes":[2.6516423E0,0E0,1.027894E0,9.469738E-1,1.3847852E0,0E0,0E0,0E0,5.3780395E-1,0E0,0E0],"parents":[2147483647,0,0,2,2,3,3,4,4,8,8],"right_children":[2,-1,4,6,8,-1,-1,-1,10,-1,-1],"split_conditions":[2.076216E0,-4.858915E-2,-1.279995E-1,2.9970536E-1,8.438832E-2,-3.498048E-3,5.415274E-2,-4.507925E-2,2.5829446E0,3.395786E-2,-1.2418891E-2],"split_indices":[8,0,4,9,1,0,0,0,1,0,0],"split_type":[0,0,0,0,0,0,0,0,0,0,0],"sum_hessian":[4.028928E1,1.5365111E1,2.492417E1,1.017893E1,1.4745239E1,5.3616896E0,4.81724E0,6.428591E0,8.3166485E0,4.406376E0,3.9102726E0],"tree_param":{"num_deleted":"0","num_feature":"12","num_nodes":"11","size_leaf_vector":"1"}},{"base_weights":[2.633175E-1,-2.4244176E-1,4.0865934E-1,1.6345233E-2,-4.014384E-2,-1.5965605E-2,4.6161476E-1,5.1795024E-2,8.99256E-3],"categories":[],"categories_nodes":[],"categories_segments":[],"categories_sizes":[],"default_left":[0,0,0,0,0,0,0,0,0],"id":86,"left_children":[1,3,5,-1,-1,-1,7,-1,-1],"loss_changes":[4.138829E0,8.978264E-1,1.3696475E0,0E0,0E0,0E0,7.8362274E-1,0E0,0E0],"parents":[2147483647,0,0,1,1,2,2,6,6],"right_children":[2,4,6,-1,-1,-1,8,-1,-1],"split_conditions":[-1.5239161E-1,-2.0895708E0,-1.046069E-1,1.6345233E-2,-4.014384E-2,-1.5965605E-2,-4.9426008E-2,5.1795024E-2,8.99256E-3],"split_indices":[6,2,4,0,0,0,2,0,0],"split_type":[0,0,0,0,0,0,0,0,0],"sum_hessian":[5.395667E1,1.1895329E1,4.206134E1,3.340224E0,8.555105E0,3.4134486E0,3.8647892E1,3.3219444E1,5.428445E0],"tree_param":{"num_deleted":"0","num_feature":"12","num_nodes":"9","size_leaf_vector":"1"}},{"base_weights":[-2.749108E-1,1.4277574E-1,-4.8420392E-2,-5.4748794E-3,3.4228947E-2],"categories":[],"categories_nodes":[],"categories_segments":[],"categories_sizes":[],"default_left":[0,0,0,0,0],"id":87,"left_children":[1,3,-1,-1,-1],"loss_changes":[2.51966E0,4.179393E-1,0E0,0E0,0E0],"parents":[2147483647,0,0,1,1],"right_children":[2,4,-1,-1,-1],"split_conditions":[-7.7637756E-1,-1.542026E0,-4.8420392E-2,-5.4748794E-3,3.4228947E-2],"split_indices":[1,0,0,0,0],"split_type":[0,0,0,0,0],"sum_hessian":[2.7032003E1,9.129689E0,1.7902315E1,4.952326E0,4.177363E0],"tree_param":{"num_deleted":"0","num_feature":"12","num_nodes":"5","size_leaf_vector":"1"}},{"base_weights":[-7.763276E-2,3.006876E-1,-2.4439047E-1,4.9607717E-3,4.978846E-2,-3.4561723E-1,4.1219052E-2,-4.8551466E-2,4.1463397E-2,2.3649631E-2,-1.6667813E-2],"categories":[],"categories_nodes":[],"categories_segments":[],"categories_sizes":[],"default_left":[0,0,0,0,0,0,0,0,0,0,0],"id":88,"left_children":[1,3,5,-1,-1,7,-1,-1,9,-1,-1],"loss_changes":[2.706795E0,6.2976027E-1,2.1046133E0,0E0,0E0,1.4347122E0,0E0,0E0,3.583335E-1,0E0,0E0],"parents":[2147483647,0,0,1,1,2,2,5,5,8,8],"right_children":[2,4,6,-1,-1,8,-1,-1,10,-1,-1],"split_conditions":[-1.279995E-1,-9.92626E-1,1.0937244E0,4.9607717E-3,4.978846E-2,5.925293E-1,4.1219052E-2,-4.8551466E-2,2.1467047E0,2.3649631E-2,-1.6667813E-2],"split_indices":[4,7,5,0,0,0,0,0,0,0,0],"split_type":[0,0,0,0,0,0,0,0,0,0,0],"sum_hessian":[4.074037E1,1.2218141E1,2.852223E1,5.9253225E0,6.2928185E0,2.5122622E1,3.3996081E0,1.8266504E1,6.8561177E0,3.4691882E0,3.3869295E0],"tree_param":{"num_deleted":"0","num_feature":"12","num_nodes":"11","size_leaf_vector":"1"}},{"base_weights":[2.5017235E-1,4.9666803E-2,-1.1445404E-2,-5.2645296E-2,8.1885375E-2,2.6808858E-1,-2.3187216E-1,4.5428467E-1,-7.50945E-3,-4.4377066E-2,-2.0276282E-3,6.5995686E-2,2.5609398E-2],"categories":[],"categories_nodes":[],"categories_segments":[],"categories_sizes":[],"default_left":[0,0,0,0,0,0,0,0,0,0,0,0,0],"id":89,"left_children":[1,-1,3,-1,5,7,9,11,-1,-1,-1,-1,-1],"loss_changes":[3.517988E0,0E0,1.3600891E0,0E0,1.4678807E0,1.028626E0,4.1683823E-1,2.480452E-1,0E0,0E0,0E0,0E0,0E0],"parents":[2147483647,0,0,2,2,4,4,5,5,6,6,7,7],"right_children":[2,-1,4,-1,6,8,10,12,-1,-1,-1,-1,-1],"split_conditions":[1.5803264E0,4.9666803E-2,1.2995216E-1,-5.2645296E-2,4.3838434E-2,5.925293E-1,5.1487777E-3,-1.0901905E0,-7.50945E-3,-4.4377066E-2,-2.0276282E-3,6.5995686E-2,2.5609398E-2],"split_indices":[8,0,9,0,5,0,4,1,0,0,0,0,0],"split_type":[0,0,0,0,0,0,0,0,0,0,0,0,0],"sum_hessian":[5.346476E1,2.7065376E1,2.6399384E1,3.3381963E0,2.3061188E1,1.45637245E1,8.497463E0,9.231421E0,5.3323026E0,3.69746E0,4.8000035E0,3.3868322E0,5.844589E0],"tree_param":{"num_deleted":"0","num_feature":"12","num_nodes":"13","size_leaf_vector":"1"}},{"base_weights":[-2.3779447E-1,1.4922118E-1,-4.7936875E-2,-1.3105218E-2,3.2713227E-2],"categories":[],"categories_nodes":[],"categories_segments":[],"categories_sizes":[],"default_left":[0,0,0,0,0],"id":90,"left_children":[1,3,-1,-1,-1],"loss_changes":[2.5552316E0,5.8998024E-1,0E0,0E0,0E0],"parents":[2147483647,0,0,1,1],"right_children":[2,4,-1,-1,-1],"split_conditions":[-7.7637756E-1,-8.7715876E-1,-4.7936875E-2,-1.3105218E-2,3.2713227E-2],"split_indices":[1,5,0,0,0],"split_type":[0,0,0,0,0],"sum_hessian":[2.5565615E1,9.972078E0,1.5593537E1,3.9743867E0,5.9976916E0],"tree_param":{"num_deleted":"0","num_feature":"12","num_nodes":"5","size_leaf_vector":"1"}},{"base_weights":[-1.2678553E-1,-4.7029432E-2,5.7381973E-2,-7.5846456E-2,3.138844E-1,-1.9123495E-1,1.2940015E-1,4.2915534E-2,6.9313557E-3,1.1538083E-2,-4.1389298E-2,3.50456E-2,-1.2932524E-2,-1.030216E-2,1.2417871E-2],"categories":[],"categories_nodes":[],"categories_segments":[],"categories_sizes":[],"default_left":[0,0,0,0,0,0,0,0,0,0,0,0,0,0,0],"id":91,"left_children":[1,-1,3,5,7,9,11,-1,-1,13,-1,-1,-1,-1,-1],"loss_changes":[2.5145836E0,0E0,9.29022E-1,4.5670438E-1,2.3102224E-1,5.5012584E-1,4.5483565E-1,0E0,0E0,1.06923304E-1,0E0,0E0,0E0,0E0,0E0],"parents":[2147483647,0,0,2,2,3,3,4,4,5,5,6,6,9,9],"right_children":[2,-1,4,6,8,10,12,-1,-1,14,-1,-1,-1,-1,-1],"split_conditions":[-1.2518911E-1,-4.7029432E-2,2.7070284E-1,7.6235205E-2,1.8132894E-1,-9.8247033E-1,5.5021565E-2,4.2915534E-2,6.9313557E-3,6.655857E-1,-4.1389298E-2,3.50456E-2,-1.2932524E-2,-1.030216E-2,1.2417871E-2],"split_indices":[9,0,5,1,0,5,4,0,0,11,0,0,0,0,0],"split_type":[0,0,0,0,0,0,0,0,0,0,0,0,0,0,0],"sum_hessian":[3.832142E1,1.2832553E1,2.5488867E1,1.7239107E1,8.24976E0,1.1078887E1,6.160221E0,5.094089E0,3.1556702E0,6.294611E0,4.7842755E0,3.1307497E0,3.0294714E0,3.1630588E0,3.1315522E0],"tree_param":{"num_deleted":"0","num_feature":"12","num_nodes":"15","size_leaf_vector":"1"}},{"base_weights":[2.516577E-1,4.9364593E-2,-1.4809912E-2,-5.0717827E-2,8.3288886E-2,6.3996683E-3,3.7144676E-2,2.5917563E-1,-2.712257E-1,2.2834856E-3,3.6248952E-2,1.004662E-3,-4.265734E-2],"categories":[],"categories_nodes":[],"categories_segments":[],"categories_sizes":[],"default_left":[0,0,0,0,0,0,0,0,0,0,0,0,0],"id":92,"left_children":[1,-1,3,-1,5,7,-1,9,11,-1,-1,-1,-1],"loss_changes":[3.1684463E0,0E0,1.2160721E0,0E0,4.6564904E-1,1.311877E0,0E0,2.3032516E-1,3.9405686E-1,0E0,0E0,0E0,0E0],"parents":[2147483647,0,0,2,2,4,4,5,5,7,7,8,8],"right_children":[2,-1,4,-1,6,8,-1,10,12,-1,-1,-1,-1],"split_conditions":[1.5803264E0,4.9364593E-2,1.7560126E-1,-5.0717827E-2,8.972236E-1,1.5678906E0,3.7144676E-2,-5.510056E-1,6.7134425E-2,2.2834856E-3,3.6248952E-2,1.004662E-3,-4.265734E-2],"split_indices":[8,0,9,0,10,9,0,10,7,0,0,0,0],"split_type":[0,0,0,0,0,0,0,0,0,0,0,0,0],"sum_hessian":[4.8023514E1,2.4720993E1,2.3302523E1,3.178619E0,2.0123903E1,1.6692144E1,3.431759E0,8.771872E0,7.9202724E0,3.0395722E0,5.7322993E0,3.150788E0,4.7694845E0],"tree_param":{"num_deleted":"0","num_feature":"12","num_nodes":"13","size_leaf_vector":"1"}},{"base_weights":[-2.81375E-1,4.2152666E-2,-4.7648713E-2,-1.8807681E-2,2.7606497E-2],"categories":[],"categories_nodes":[],"categories_segments":[],"categories_sizes":[],"default_left":[0,0,0,0,0],"id":93,"left_children":[1,3,-1,-1,-1],"loss_changes":[1.5538644E0,5.9366363E-1,0E0,0E0,0E0],"parents":[2147483647,0,0,1,1],"right_children":[2,4,-1,-1,-1],"split_conditions":[-7.7637756E-1,-1.542026E0,-4.7648713E-2,-1.8807681E-2,2.7606497E-2],"split_indices":[1,0,0,0,0],"split_type":[0,0,0,0,0],"sum_hessian":[2.329781E1,9.059553E0,1.42382555E1,4.6644726E0,4.395081E0],"tree_param":{"num_deleted":"0","num_feature":"12","num_nodes":"5","size_leaf_vector":"1"}},{"base_weights":[-1.2488185E-1,-4.7912136E-2,6.5809414E-2,2.735243E-1,-1.1584707E-1,-5.3792645E-4,4.8920386E-2,-2.6374343E-1,3.029562E-2,-4.848695E-2,3.235825E-3],"categories":[],"categories_nodes":[],"categories_segments":[],"categories_sizes":[],"default_left":[0,0,0,0,0,0,0,0,0,0,0],"id":94,"left_children":[1,-1,3,5,7,-1,-1,9,-1,-1,-1],"loss_changes":[2.6022718E0,0E0,9.983423E-1,7.394858E-1,9.699084E-1,0E0,0E0,7.4597836E-1,0E0,0E0,0E0],"parents":[2147483647,0,0,2,2,3,3,4,4,7,7],"right_children":[2,-1,4,6,8,-1,-1,10,-1,-1,-1],"split_conditions":[2.076216E0,-4.7912136E-2,-1.279995E-1,-9.92626E-1,1.0937244E0,-5.3792645E-4,4.8920386E-2,4.734825E-1,3.029562E-2,-4.848695E-2,3.235825E-3],"split_indices":[8,0,4,7,5,0,0,1,0,0,0],"split_type":[0,0,0,0,0,0,0,0,0,0,0],"sum_hessian":[3.7056644E1,1.2438183E1,2.4618464E1,1.1249506E1,1.3368957E1,5.3309317E0,5.918575E0,1.0153567E1,3.21539E0,5.4477363E0,4.7058306E0],"tree_param":{"num_deleted":"0","num_feature":"12","num_nodes":"11","size_leaf_vector":"1"}},{"base_weights":[2.1034417E-1,4.900668E-2,-4.7331423E-2,-5.0628085E-2,3.92272E-2,3.878086E-2,-3.479599E-2,-3.0507004E-1,1.5539436E-1,-2.915125E-3,-5.064083E-2,5.817861E-4,4.0854305E-2],"categories":[],"categories_nodes":[],"categories_segments":[],"categories_sizes":[],"default_left":[0,0,0,0,0,0,0,0,0,0,0,0,0],"id":95,"left_children":[1,-1,3,-1,5,-1,7,9,11,-1,-1,-1,-1],"loss_changes":[3.465069E0,0E0,1.043504E0,0E0,5.96825E-1,0E0,1.0531074E0,4.529125E-1,4.5754382E-1,0E0,0E0,0E0,0E0],"parents":[2147483647,0,0,2,2,4,4,6,6,7,7,8,8],"right_children":[2,-1,4,-1,6,-1,8,10,12,-1,-1,-1,-1],"split_conditions":[1.5803264E0,4.900668E-2,1.2995216E-1,-5.0628085E-2,-1.9672582E0,3.878086E-2,-1.7580332E-1,-7.246577E-1,6.3619363E-1,-2.915125E-3,-5.064083E-2,5.817861E-4,4.0854305E-2],"split_indices":[8,0,9,0,2,0,6,0,10,0,0,0,0],"split_type":[0,0,0,0,0,0,0,0,0,0,0,0,0],"sum_hessian":[4.6752266E1,2.1984678E1,2.4767588E1,3.1605875E0,2.1607E1,3.0421667E0,1.8564835E1,7.4185376E0,1.11462965E1,3.6125703E0,3.8059673E0,7.6494765E0,3.4968197E0],"tree_param":{"num_deleted":"0","num_feature":"12","num_nodes":"13","size_leaf_vector":"1"}},{"base_weights":[-2.9732567E-1,3.3092637E-2,-4.75251E-2,-1.6474864E-2,2.2977658E-2],"categories":[],"categories_nodes":[],"categories_segments":[],"categories_sizes":[],"default_left":[0,0,0,0,0],"id":96,"left_children":[1,3,-1,-1,-1],"loss_changes":[1.346087E0,3.82435E-1,0E0,0E0,0E0],"parents":[2147483647,0,0,1,1],"right_children":[2,4,-1,-1,-1],"split_conditions":[-7.7637756E-1,6.3241947E-1,-4.75251E-2,-1.6474864E-2,2.2977658E-2],"split_indices":[1,11,0,0,0],"split_type":[0,0,0,0,0],"sum_hessian":[2.1629099E1,7.8553114E0,1.3773788E1,3.9970803E0,3.8582308E0],"tree_param":{"num_deleted":"0","num_feature":"12","num_nodes":"5","size_leaf_vector":"1"}},{"base_weights":[-7.477304E-2,-4.6323154E-2,9.236966E-2,1.6853297E-1,-2.5654009E-2,4.470411E-2,6.9716245E-2,-5.594584E-2,3.8634375E-2,2.8053913E-2,-2.388556E-2],"categories":[],"categories_nodes":[],"categories_segments":[],"categories_sizes":[],"default_left":[0,0,0,0,0,0,0,0,0,0,0],"id":97,"left_children":[1,-1,3,5,-1,-1,7,9,-1,-1,-1],"loss_changes":[2.5749426E0,0E0,7.899916E-1,6.202449E-1,0E0,0E0,7.6387745E-1,9.4272727E-1,0E0,0E0,0E0],"parents":[2147483647,0,0,2,2,3,3,6,6,7,7],"right_children":[2,-1,4,6,-1,-1,8,10,-1,-1,-1],"split_conditions":[-1.2518911E-1,-4.6323154E-2,2.0543404E0,-3.7445806E-2,-2.5654009E-2,4.470411E-2,5.925293E-1,-2.2110605E0,3.8634375E-2,2.8053913E-2,-2.388556E-2],"split_indices":[9,0,2,11,0,0,0,0,0,0,0],"split_type":[0,0,0,0,0,0,0,0,0,0,0],"sum_hessian":[3.799941E1,1.0898528E1,2.7100882E1,2.266937E1,4.431511E0,5.0139513E0,1.765542E1,1.3228602E1,4.4268174E0,4.4706097E0,8.757993E0],"tree_param":{"num_deleted":"0","num_feature":"12","num_nodes":"11","size_leaf_vector":"1"}},{"base_weights":[2.0214279E-1,4.8687726E-2,-5.3654183E-2,-1.188308E-1,2.8685609E-2,-3.196211E-3,-4.780053E-2,-1.10196374E-1,3.494173E-2,1.787052E-2,-2.2898689E-2],"categories":[],"categories_nodes":[],"categories_segments":[],"categories_sizes":[],"default_left":[0,0,0,0,0,0,0,0,0,0,0],"id":98,"left_children":[1,-1,3,5,-1,7,-1,9,-1,-1,-1],"loss_changes":[3.2433174E0,0E0,5.7047373E-1,8.703753E-1,0E0,6.7565095E-1,0E0,5.1163626E-1,0E0,0E0,0E0],"parents":[2147483647,0,0,2,2,3,3,5,5,7,7],"right_children":[2,-1,4,6,-1,8,-1,10,-1,-1,-1],"split_conditions":[1.5803264E0,4.8687726E-2,9.9668086E-1,3.27159E-2,2.8685609E-2,-2.2511502E-1,-4.780053E-2,-2.074238E0,3.494173E-2,1.787052E-2,-2.2898689E-2],"split_indices":[8,0,10,10,0,10,0,2,0,0,0],"split_type":[0,0,0,0,0,0,0,0,0,0,0],"sum_hessian":[4.3171467E1,2.000263E1,2.3168839E1,1.9993021E1,3.1758163E0,1.5887131E1,4.1058908E0,1.2715971E1,3.1711597E0,3.5581317E0,9.15784E0],"tree_param":{"num_deleted":"0","num_feature":"12","num_nodes":"11","size_leaf_vector":"1"}},{"base_weights":[-2.4791193E-1,5.6087602E-2,-4.2302713E-2,-1.0982176E-2,2.1058116E-2],"categories":[],"categories_nodes":[],"categories_segments":[],"categories_sizes":[],"default_left":[0,0,0,0,0],"id":99,"left_children":[1,3,-1,-1,-1],"loss_changes":[1.1509032E0,2.4412084E-1,0E0,0E0,0E0],"parents":[2147483647,0,0,1,1],"right_children":[2,4,-1,-1,-1],"split_conditions":[-2.9421955E-1,-1.542026E0,-4.2302713E-2,-1.0982176E-2,2.1058116E-2],"split_indices":[10,0,0,0,0],"split_type":[0,0,0,0,0],"sum_hessian":[2.0173632E1,7.6218424E0,1.255179E1,3.8145638E0,3.8072786E0],"tree_param":{"num_deleted":"0","num_feature":"12","num_nodes":"5","size_leaf_vector":"1"}},{"base_weights":[-4.9624033E-2,-4.5780163E-2,1.1266841E-1,2.0804003E-1,-6.250141E-2,8.2399875E-2,4.0117916E-2,-3.6592975E-2,2.2736175E-2,2.7223153E-2,-9.389519E-3],"categories":[],"categories_nodes":[],"categories_segments":[],"categories_sizes":[],"default_left":[0,0,0,0,0,0,0,0,0,0,0],"id":100,"left_children":[1,-1,3,5,7,9,-1,-1,-1,-1,-1],"loss_changes":[2.486488E0,0E0,4.6577907E-1,3.9837217E-1,9.9114245E-1,4.2817366E-1,0E0,0E0,0E0,0E0,0E0],"parents":[2147483647,0,0,2,2,3,3,4,4,5,5],"right_children":[2,-1,4,6,8,10,-1,-1,-1,-1,-1],"split_conditions":[1.5803264E0,-4.5780163E-2,1.5710032E-1,-4.1853583E-1,9.8928356E-1,-1.343436E0,4.0117916E-2,-3.6592975E-2,2.2736175E-2,2.7223153E-2,-9.389519E-3],"split_indices":[8,0,6,6,6,1,0,0,0,0,0],"split_type":[0,0,0,0,0,0,0,0,0,0,0],"sum_hessian":[3.5756584E1,9.654345E0,2.6102242E1,1.6779146E1,9.323093E0,1.1030356E1,5.7487907E0,4.4267526E0,4.896341E0,5.0492377E0,5.981118E0],"tree_param":{"num_deleted":"0","num_feature":"12","num_nodes":"11","size_leaf_vector":"1"}},{"base_weights":[2.1737671E-1,4.8342228E-2,-2.5001485E-2,-1.0312189E-1,2.9509408E-2,-2.0545807E-2,-3.7434526E-2,-1.7761354E-1,1.6895936E-1,1.0369512E-2,-4.8603397E-2,-2.984883E-3,3.366907E-2],"categories":[],"categories_nodes":[],"categories_segments":[],